digraph Tree {
node [shape=box] ;
0 [label="A1=4 <= 0.5\nentropy = 0.881\nsamples = 1000\nvalue = [700, 300]"] ;
1 [label="A12=4 <= 0.5\nentropy = 0.981\nsamples = 606\nvalue = [352, 254]"] ;
0 -> 1 [labeldistance=2.5, labelangle=45, headlabel="True"] ;
2 [label="A1=1 <= 0.5\nentropy = 0.961\nsamples = 500\nvalue = [308, 192]"] ;
1 -> 2 ;
3 [label="A13=25.0 <= 0.5\nentropy = 0.903\nsamples = 276\nvalue = [188, 88]"] ;
2 -> 3 ;
4 [label="A6=5 <= 0.5\nentropy = 0.875\nsamples = 258\nvalue = [182, 76]"] ;
3 -> 4 ;
5 [label="A2=48.0 <= 0.5\nentropy = 0.915\nsamples = 218\nvalue = [146, 72]"] ;
4 -> 5 ;
6 [label="A7=4 <= 0.5\nentropy = 0.894\nsamples = 209\nvalue = [144, 65]"] ;
5 -> 6 ;
7 [label="A1=3 <= 0.5\nentropy = 0.929\nsamples = 180\nvalue = [118, 62]"] ;
6 -> 7 ;
8 [label="A12=1 <= 0.5\nentropy = 0.966\nsamples = 138\nvalue = [84, 54]"] ;
7 -> 8 ;
9 [label="A9=2 <= 0.5\nentropy = 0.998\nsamples = 91\nvalue = [48, 43]"] ;
8 -> 9 ;
10 [label="A10=1 <= 0.5\nentropy = 0.967\nsamples = 61\nvalue = [37, 24]"] ;
9 -> 10 ;
11 [label="entropy = 0.0\nsamples = 3\nvalue = [0, 3]"] ;
10 -> 11 ;
12 [label="A4=1 <= 0.5\nentropy = 0.944\nsamples = 58\nvalue = [37, 21]"] ;
10 -> 12 ;
13 [label="A2=36.0 <= 0.5\nentropy = 0.984\nsamples = 47\nvalue = [27, 20]"] ;
12 -> 13 ;
14 [label="A2=27.0 <= 0.5\nentropy = 0.971\nsamples = 45\nvalue = [27, 18]"] ;
13 -> 14 ;
15 [label="A9=4 <= 0.5\nentropy = 0.952\nsamples = 43\nvalue = [27, 16]"] ;
14 -> 15 ;
16 [label="A16=1.0 <= 0.5\nentropy = 0.857\nsamples = 32\nvalue = [23, 9]"] ;
15 -> 16 ;
17 [label="A5=2767.0 <= 0.5\nentropy = 0.414\nsamples = 12\nvalue = [11, 1]"] ;
16 -> 17 ;
18 [label="entropy = 0.0\nsamples = 11\nvalue = [11, 0]"] ;
17 -> 18 ;
19 [label="entropy = 0.0\nsamples = 1\nvalue = [0, 1]"] ;
17 -> 19 ;
20 [label="A6=1 <= 0.5\nentropy = 0.971\nsamples = 20\nvalue = [12, 8]"] ;
16 -> 20 ;
21 [label="A17=4 <= 0.5\nentropy = 0.503\nsamples = 9\nvalue = [8, 1]"] ;
20 -> 21 ;
22 [label="entropy = 0.0\nsamples = 8\nvalue = [8, 0]"] ;
21 -> 22 ;
23 [label="entropy = 0.0\nsamples = 1\nvalue = [0, 1]"] ;
21 -> 23 ;
24 [label="A2=24.0 <= 0.5\nentropy = 0.946\nsamples = 11\nvalue = [4, 7]"] ;
20 -> 24 ;
25 [label="A9=3 <= 0.5\nentropy = 0.764\nsamples = 9\nvalue = [2, 7]"] ;
24 -> 25 ;
26 [label="entropy = 0.0\nsamples = 1\nvalue = [1, 0]"] ;
25 -> 26 ;
27 [label="A13=28.0 <= 0.5\nentropy = 0.544\nsamples = 8\nvalue = [1, 7]"] ;
25 -> 27 ;
28 [label="entropy = 0.0\nsamples = 7\nvalue = [0, 7]"] ;
27 -> 28 ;
29 [label="entropy = 0.0\nsamples = 1\nvalue = [1, 0]"] ;
27 -> 29 ;
30 [label="entropy = 0.0\nsamples = 2\nvalue = [2, 0]"] ;
24 -> 30 ;
31 [label="A11=2.0 <= 0.5\nentropy = 0.946\nsamples = 11\nvalue = [4, 7]"] ;
15 -> 31 ;
32 [label="A17=3 <= 0.5\nentropy = 0.918\nsamples = 6\nvalue = [4, 2]"] ;
31 -> 32 ;
33 [label="entropy = 0.0\nsamples = 3\nvalue = [3, 0]"] ;
32 -> 33 ;
34 [label="A4=2 <= 0.5\nentropy = 0.918\nsamples = 3\nvalue = [1, 2]"] ;
32 -> 34 ;
35 [label="entropy = 0.0\nsamples = 2\nvalue = [0, 2]"] ;
34 -> 35 ;
36 [label="entropy = 0.0\nsamples = 1\nvalue = [1, 0]"] ;
34 -> 36 ;
37 [label="entropy = 0.0\nsamples = 5\nvalue = [0, 5]"] ;
31 -> 37 ;
38 [label="entropy = 0.0\nsamples = 2\nvalue = [0, 2]"] ;
14 -> 38 ;
39 [label="entropy = 0.0\nsamples = 2\nvalue = [0, 2]"] ;
13 -> 39 ;
40 [label="A5=9398.0 <= 0.5\nentropy = 0.439\nsamples = 11\nvalue = [10, 1]"] ;
12 -> 40 ;
41 [label="entropy = 0.0\nsamples = 10\nvalue = [10, 0]"] ;
40 -> 41 ;
42 [label="entropy = 0.0\nsamples = 1\nvalue = [0, 1]"] ;
40 -> 42 ;
43 [label="A6=2 <= 0.5\nentropy = 0.948\nsamples = 30\nvalue = [11, 19]"] ;
9 -> 43 ;
44 [label="A2=18.0 <= 0.5\nentropy = 1.0\nsamples = 22\nvalue = [11, 11]"] ;
43 -> 44 ;
45 [label="A2=9.0 <= 0.5\nentropy = 0.964\nsamples = 18\nvalue = [7, 11]"] ;
44 -> 45 ;
46 [label="A8=3.0 <= 0.5\nentropy = 1.0\nsamples = 14\nvalue = [7, 7]"] ;
45 -> 46 ;
47 [label="A2=21.0 <= 0.5\nentropy = 0.946\nsamples = 11\nvalue = [7, 4]"] ;
46 -> 47 ;
48 [label="A17=4 <= 0.5\nentropy = 0.881\nsamples = 10\nvalue = [7, 3]"] ;
47 -> 48 ;
49 [label="A13=42.0 <= 0.5\nentropy = 0.764\nsamples = 9\nvalue = [7, 2]"] ;
48 -> 49 ;
50 [label="A13=24.0 <= 0.5\nentropy = 0.544\nsamples = 8\nvalue = [7, 1]"] ;
49 -> 50 ;
51 [label="entropy = 0.0\nsamples = 7\nvalue = [7, 0]"] ;
50 -> 51 ;
52 [label="entropy = 0.0\nsamples = 1\nvalue = [0, 1]"] ;
50 -> 52 ;
53 [label="entropy = 0.0\nsamples = 1\nvalue = [0, 1]"] ;
49 -> 53 ;
54 [label="entropy = 0.0\nsamples = 1\nvalue = [0, 1]"] ;
48 -> 54 ;
55 [label="entropy = 0.0\nsamples = 1\nvalue = [0, 1]"] ;
47 -> 55 ;
56 [label="entropy = 0.0\nsamples = 3\nvalue = [0, 3]"] ;
46 -> 56 ;
57 [label="entropy = 0.0\nsamples = 4\nvalue = [0, 4]"] ;
45 -> 57 ;
58 [label="entropy = 0.0\nsamples = 4\nvalue = [4, 0]"] ;
44 -> 58 ;
59 [label="entropy = 0.0\nsamples = 8\nvalue = [0, 8]"] ;
43 -> 59 ;
60 [label="A2=24.0 <= 0.5\nentropy = 0.785\nsamples = 47\nvalue = [36, 11]"] ;
8 -> 60 ;
61 [label="A9=1 <= 0.5\nentropy = 0.684\nsamples = 44\nvalue = [36, 8]"] ;
60 -> 61 ;
62 [label="A5=1237.0 <= 0.5\nentropy = 0.592\nsamples = 42\nvalue = [36, 6]"] ;
61 -> 62 ;
63 [label="A13=30.0 <= 0.5\nentropy = 0.535\nsamples = 41\nvalue = [36, 5]"] ;
62 -> 63 ;
64 [label="A5=1928.0 <= 0.5\nentropy = 0.469\nsamples = 40\nvalue = [36, 4]"] ;
63 -> 64 ;
65 [label="A5=1534.0 <= 0.5\nentropy = 0.391\nsamples = 39\nvalue = [36, 3]"] ;
64 -> 65 ;
66 [label="A17=1 <= 0.5\nentropy = 0.297\nsamples = 38\nvalue = [36, 2]"] ;
65 -> 66 ;
67 [label="A5=766.0 <= 0.5\nentropy = 0.179\nsamples = 37\nvalue = [36, 1]"] ;
66 -> 67 ;
68 [label="entropy = 0.0\nsamples = 36\nvalue = [36, 0]"] ;
67 -> 68 ;
69 [label="entropy = 0.0\nsamples = 1\nvalue = [0, 1]"] ;
67 -> 69 ;
70 [label="entropy = 0.0\nsamples = 1\nvalue = [0, 1]"] ;
66 -> 70 ;
71 [label="entropy = 0.0\nsamples = 1\nvalue = [0, 1]"] ;
65 -> 71 ;
72 [label="entropy = 0.0\nsamples = 1\nvalue = [0, 1]"] ;
64 -> 72 ;
73 [label="entropy = 0.0\nsamples = 1\nvalue = [0, 1]"] ;
63 -> 73 ;
74 [label="entropy = 0.0\nsamples = 1\nvalue = [0, 1]"] ;
62 -> 74 ;
75 [label="entropy = 0.0\nsamples = 2\nvalue = [0, 2]"] ;
61 -> 75 ;
76 [label="entropy = 0.0\nsamples = 3\nvalue = [0, 3]"] ;
60 -> 76 ;
77 [label="A13=34.0 <= 0.5\nentropy = 0.702\nsamples = 42\nvalue = [34, 8]"] ;
7 -> 77 ;
78 [label="A8=4.0 <= 0.5\nentropy = 0.61\nsamples = 40\nvalue = [34, 6]"] ;
77 -> 78 ;
79 [label="A5=745.0 <= 0.5\nentropy = 0.371\nsamples = 28\nvalue = [26, 2]"] ;
78 -> 79 ;
80 [label="A5=2319.0 <= 0.5\nentropy = 0.229\nsamples = 27\nvalue = [26, 1]"] ;
79 -> 80 ;
81 [label="entropy = 0.0\nsamples = 26\nvalue = [26, 0]"] ;
80 -> 81 ;
82 [label="entropy = 0.0\nsamples = 1\nvalue = [0, 1]"] ;
80 -> 82 ;
83 [label="entropy = 0.0\nsamples = 1\nvalue = [0, 1]"] ;
79 -> 83 ;
84 [label="A4=9 <= 0.5\nentropy = 0.918\nsamples = 12\nvalue = [8, 4]"] ;
78 -> 84 ;
85 [label="A7=3 <= 0.5\nentropy = 0.722\nsamples = 10\nvalue = [8, 2]"] ;
84 -> 85 ;
86 [label="entropy = 0.0\nsamples = 7\nvalue = [7, 0]"] ;
85 -> 86 ;
87 [label="A11=2.0 <= 0.5\nentropy = 0.918\nsamples = 3\nvalue = [1, 2]"] ;
85 -> 87 ;
88 [label="entropy = 0.0\nsamples = 1\nvalue = [1, 0]"] ;
87 -> 88 ;
89 [label="entropy = 0.0\nsamples = 2\nvalue = [0, 2]"] ;
87 -> 89 ;
90 [label="entropy = 0.0\nsamples = 2\nvalue = [0, 2]"] ;
84 -> 90 ;
91 [label="entropy = 0.0\nsamples = 2\nvalue = [0, 2]"] ;
77 -> 91 ;
92 [label="A5=8386.0 <= 0.5\nentropy = 0.48\nsamples = 29\nvalue = [26, 3]"] ;
6 -> 92 ;
93 [label="A5=939.0 <= 0.5\nentropy = 0.371\nsamples = 28\nvalue = [26, 2]"] ;
92 -> 93 ;
94 [label="A13=43.0 <= 0.5\nentropy = 0.229\nsamples = 27\nvalue = [26, 1]"] ;
93 -> 94 ;
95 [label="entropy = 0.0\nsamples = 26\nvalue = [26, 0]"] ;
94 -> 95 ;
96 [label="entropy = 0.0\nsamples = 1\nvalue = [0, 1]"] ;
94 -> 96 ;
97 [label="entropy = 0.0\nsamples = 1\nvalue = [0, 1]"] ;
93 -> 97 ;
98 [label="entropy = 0.0\nsamples = 1\nvalue = [0, 1]"] ;
92 -> 98 ;
99 [label="A6=1 <= 0.5\nentropy = 0.764\nsamples = 9\nvalue = [2, 7]"] ;
5 -> 99 ;
100 [label="A5=6560.0 <= 0.5\nentropy = 0.918\nsamples = 3\nvalue = [2, 1]"] ;
99 -> 100 ;
101 [label="entropy = 0.0\nsamples = 2\nvalue = [2, 0]"] ;
100 -> 101 ;
102 [label="entropy = 0.0\nsamples = 1\nvalue = [0, 1]"] ;
100 -> 102 ;
103 [label="entropy = 0.0\nsamples = 6\nvalue = [0, 6]"] ;
99 -> 103 ;
104 [label="A5=1042.0 <= 0.5\nentropy = 0.469\nsamples = 40\nvalue = [36, 4]"] ;
4 -> 104 ;
105 [label="A5=1924.0 <= 0.5\nentropy = 0.391\nsamples = 39\nvalue = [36, 3]"] ;
104 -> 105 ;
106 [label="A5=1344.0 <= 0.5\nentropy = 0.297\nsamples = 38\nvalue = [36, 2]"] ;
105 -> 106 ;
107 [label="A5=14555.0 <= 0.5\nentropy = 0.179\nsamples = 37\nvalue = [36, 1]"] ;
106 -> 107 ;
108 [label="entropy = 0.0\nsamples = 36\nvalue = [36, 0]"] ;
107 -> 108 ;
109 [label="entropy = 0.0\nsamples = 1\nvalue = [0, 1]"] ;
107 -> 109 ;
110 [label="entropy = 0.0\nsamples = 1\nvalue = [0, 1]"] ;
106 -> 110 ;
111 [label="entropy = 0.0\nsamples = 1\nvalue = [0, 1]"] ;
105 -> 111 ;
112 [label="entropy = 0.0\nsamples = 1\nvalue = [0, 1]"] ;
104 -> 112 ;
113 [label="A3=2 <= 0.5\nentropy = 0.918\nsamples = 18\nvalue = [6, 12]"] ;
3 -> 113 ;
114 [label="entropy = 0.0\nsamples = 6\nvalue = [0, 6]"] ;
113 -> 114 ;
115 [label="A2=12.0 <= 0.5\nentropy = 1.0\nsamples = 12\nvalue = [6, 6]"] ;
113 -> 115 ;
116 [label="A7=2 <= 0.5\nentropy = 0.811\nsamples = 8\nvalue = [6, 2]"] ;
115 -> 116 ;
117 [label="entropy = 0.0\nsamples = 5\nvalue = [5, 0]"] ;
116 -> 117 ;
118 [label="A5=3213.0 <= 0.5\nentropy = 0.918\nsamples = 3\nvalue = [1, 2]"] ;
116 -> 118 ;
119 [label="entropy = 0.0\nsamples = 2\nvalue = [0, 2]"] ;
118 -> 119 ;
120 [label="entropy = 0.0\nsamples = 1\nvalue = [1, 0]"] ;
118 -> 120 ;
121 [label="entropy = 0.0\nsamples = 4\nvalue = [0, 4]"] ;
115 -> 121 ;
122 [label="A3=4 <= 0.5\nentropy = 0.996\nsamples = 224\nvalue = [120, 104]"] ;
2 -> 122 ;
123 [label="A6=3 <= 0.5\nentropy = 0.996\nsamples = 171\nvalue = [79, 92]"] ;
122 -> 123 ;
124 [label="A10=1 <= 0.5\nentropy = 0.992\nsamples = 166\nvalue = [74, 92]"] ;
123 -> 124 ;
125 [label="A2=48.0 <= 0.5\nentropy = 0.845\nsamples = 22\nvalue = [16, 6]"] ;
124 -> 125 ;
126 [label="A9=3 <= 0.5\nentropy = 0.722\nsamples = 20\nvalue = [16, 4]"] ;
125 -> 126 ;
127 [label="entropy = 0.0\nsamples = 8\nvalue = [8, 0]"] ;
126 -> 127 ;
128 [label="A18=2.0 <= 0.5\nentropy = 0.918\nsamples = 12\nvalue = [8, 4]"] ;
126 -> 128 ;
129 [label="A17=3 <= 0.5\nentropy = 0.985\nsamples = 7\nvalue = [3, 4]"] ;
128 -> 129 ;
130 [label="A15=2 <= 0.5\nentropy = 0.811\nsamples = 4\nvalue = [3, 1]"] ;
129 -> 130 ;
131 [label="entropy = 0.0\nsamples = 1\nvalue = [0, 1]"] ;
130 -> 131 ;
132 [label="entropy = 0.0\nsamples = 3\nvalue = [3, 0]"] ;
130 -> 132 ;
133 [label="entropy = 0.0\nsamples = 3\nvalue = [0, 3]"] ;
129 -> 133 ;
134 [label="entropy = 0.0\nsamples = 5\nvalue = [5, 0]"] ;
128 -> 134 ;
135 [label="entropy = 0.0\nsamples = 2\nvalue = [0, 2]"] ;
125 -> 135 ;
136 [label="A6=4 <= 0.5\nentropy = 0.973\nsamples = 144\nvalue = [58, 86]"] ;
124 -> 136 ;
137 [label="A2=6.0 <= 0.5\nentropy = 0.962\nsamples = 140\nvalue = [54, 86]"] ;
136 -> 137 ;
138 [label="A13=29.0 <= 0.5\nentropy = 0.943\nsamples = 133\nvalue = [48, 85]"] ;
137 -> 138 ;
139 [label="A2=15.0 <= 0.5\nentropy = 0.957\nsamples = 127\nvalue = [48, 79]"] ;
138 -> 139 ;
140 [label="A17=3 <= 0.5\nentropy = 0.937\nsamples = 119\nvalue = [42, 77]"] ;
139 -> 140 ;
141 [label="A9=4 <= 0.5\nentropy = 0.998\nsamples = 42\nvalue = [20, 22]"] ;
140 -> 141 ;
142 [label="A13=35.0 <= 0.5\nentropy = 0.98\nsamples = 36\nvalue = [15, 21]"] ;
141 -> 142 ;
143 [label="A11=1.0 <= 0.5\nentropy = 0.96\nsamples = 34\nvalue = [13, 21]"] ;
142 -> 143 ;
144 [label="A3=1 <= 0.5\nentropy = 0.987\nsamples = 30\nvalue = [13, 17]"] ;
143 -> 144 ;
145 [label="A2=21.0 <= 0.5\nentropy = 0.999\nsamples = 27\nvalue = [13, 14]"] ;
144 -> 145 ;
146 [label="A9=2 <= 0.5\nentropy = 0.99\nsamples = 25\nvalue = [11, 14]"] ;
145 -> 146 ;
147 [label="A14=2 <= 0.5\nentropy = 0.993\nsamples = 20\nvalue = [11, 9]"] ;
146 -> 147 ;
148 [label="A13=45.0 <= 0.5\nentropy = 0.964\nsamples = 18\nvalue = [11, 7]"] ;
147 -> 148 ;
149 [label="A13=39.0 <= 0.5\nentropy = 0.896\nsamples = 16\nvalue = [11, 5]"] ;
148 -> 149 ;
150 [label="A19=2 <= 0.5\nentropy = 0.837\nsamples = 15\nvalue = [11, 4]"] ;
149 -> 150 ;
151 [label="A11=2.0 <= 0.5\nentropy = 0.971\nsamples = 10\nvalue = [6, 4]"] ;
150 -> 151 ;
152 [label="A4=3 <= 0.5\nentropy = 0.985\nsamples = 7\nvalue = [3, 4]"] ;
151 -> 152 ;
153 [label="entropy = 0.0\nsamples = 3\nvalue = [0, 3]"] ;
152 -> 153 ;
154 [label="A8=2.0 <= 0.5\nentropy = 0.811\nsamples = 4\nvalue = [3, 1]"] ;
152 -> 154 ;
155 [label="entropy = 0.0\nsamples = 3\nvalue = [3, 0]"] ;
154 -> 155 ;
156 [label="entropy = 0.0\nsamples = 1\nvalue = [0, 1]"] ;
154 -> 156 ;
157 [label="entropy = 0.0\nsamples = 3\nvalue = [3, 0]"] ;
151 -> 157 ;
158 [label="entropy = 0.0\nsamples = 5\nvalue = [5, 0]"] ;
150 -> 158 ;
159 [label="entropy = 0.0\nsamples = 1\nvalue = [0, 1]"] ;
149 -> 159 ;
160 [label="entropy = 0.0\nsamples = 2\nvalue = [0, 2]"] ;
148 -> 160 ;
161 [label="entropy = 0.0\nsamples = 2\nvalue = [0, 2]"] ;
147 -> 161 ;
162 [label="entropy = 0.0\nsamples = 5\nvalue = [0, 5]"] ;
146 -> 162 ;
163 [label="entropy = 0.0\nsamples = 2\nvalue = [2, 0]"] ;
145 -> 163 ;
164 [label="entropy = 0.0\nsamples = 3\nvalue = [0, 3]"] ;
144 -> 164 ;
165 [label="entropy = 0.0\nsamples = 4\nvalue = [0, 4]"] ;
143 -> 165 ;
166 [label="entropy = 0.0\nsamples = 2\nvalue = [2, 0]"] ;
142 -> 166 ;
167 [label="A5=1217.0 <= 0.5\nentropy = 0.65\nsamples = 6\nvalue = [5, 1]"] ;
141 -> 167 ;
168 [label="entropy = 0.0\nsamples = 5\nvalue = [5, 0]"] ;
167 -> 168 ;
169 [label="entropy = 0.0\nsamples = 1\nvalue = [0, 1]"] ;
167 -> 169 ;
170 [label="A2=36.0 <= 0.5\nentropy = 0.863\nsamples = 77\nvalue = [22, 55]"] ;
140 -> 170 ;
171 [label="A4=0 <= 0.5\nentropy = 0.903\nsamples = 69\nvalue = [22, 47]"] ;
170 -> 171 ;
172 [label="A9=4 <= 0.5\nentropy = 0.954\nsamples = 56\nvalue = [21, 35]"] ;
171 -> 172 ;
173 [label="A6=5 <= 0.5\nentropy = 0.977\nsamples = 51\nvalue = [21, 30]"] ;
172 -> 173 ;
174 [label="A16=2.0 <= 0.5\nentropy = 0.933\nsamples = 43\nvalue = [15, 28]"] ;
173 -> 174 ;
175 [label="A3=1 <= 0.5\nentropy = 0.98\nsamples = 36\nvalue = [15, 21]"] ;
174 -> 175 ;
176 [label="A13=27.0 <= 0.5\nentropy = 0.997\nsamples = 32\nvalue = [15, 17]"] ;
175 -> 176 ;
177 [label="A11=1.0 <= 0.5\nentropy = 0.978\nsamples = 29\nvalue = [12, 17]"] ;
176 -> 177 ;
178 [label="A13=28.0 <= 0.5\nentropy = 0.918\nsamples = 24\nvalue = [8, 16]"] ;
177 -> 178 ;
179 [label="A7=5 <= 0.5\nentropy = 0.845\nsamples = 22\nvalue = [6, 16]"] ;
178 -> 179 ;
180 [label="A9=3 <= 0.5\nentropy = 0.722\nsamples = 20\nvalue = [4, 16]"] ;
179 -> 180 ;
181 [label="A5=3650.0 <= 0.5\nentropy = 0.371\nsamples = 14\nvalue = [1, 13]"] ;
180 -> 181 ;
182 [label="entropy = 0.0\nsamples = 13\nvalue = [0, 13]"] ;
181 -> 182 ;
183 [label="entropy = 0.0\nsamples = 1\nvalue = [1, 0]"] ;
181 -> 183 ;
184 [label="A12=3 <= 0.5\nentropy = 1.0\nsamples = 6\nvalue = [3, 3]"] ;
180 -> 184 ;
185 [label="entropy = 0.0\nsamples = 3\nvalue = [3, 0]"] ;
184 -> 185 ;
186 [label="entropy = 0.0\nsamples = 3\nvalue = [0, 3]"] ;
184 -> 186 ;
187 [label="entropy = 0.0\nsamples = 2\nvalue = [2, 0]"] ;
179 -> 187 ;
188 [label="entropy = 0.0\nsamples = 2\nvalue = [2, 0]"] ;
178 -> 188 ;
189 [label="A6=1 <= 0.5\nentropy = 0.722\nsamples = 5\nvalue = [4, 1]"] ;
177 -> 189 ;
190 [label="entropy = 0.0\nsamples = 1\nvalue = [0, 1]"] ;
189 -> 190 ;
191 [label="entropy = 0.0\nsamples = 4\nvalue = [4, 0]"] ;
189 -> 191 ;
192 [label="entropy = 0.0\nsamples = 3\nvalue = [3, 0]"] ;
176 -> 192 ;
193 [label="entropy = 0.0\nsamples = 4\nvalue = [0, 4]"] ;
175 -> 193 ;
194 [label="entropy = 0.0\nsamples = 7\nvalue = [0, 7]"] ;
174 -> 194 ;
195 [label="A7=5 <= 0.5\nentropy = 0.811\nsamples = 8\nvalue = [6, 2]"] ;
173 -> 195 ;
196 [label="entropy = 0.0\nsamples = 5\nvalue = [5, 0]"] ;
195 -> 196 ;
197 [label="A8=2.0 <= 0.5\nentropy = 0.918\nsamples = 3\nvalue = [1, 2]"] ;
195 -> 197 ;
198 [label="entropy = 0.0\nsamples = 2\nvalue = [0, 2]"] ;
197 -> 198 ;
199 [label="entropy = 0.0\nsamples = 1\nvalue = [1, 0]"] ;
197 -> 199 ;
200 [label="entropy = 0.0\nsamples = 5\nvalue = [0, 5]"] ;
172 -> 200 ;
201 [label="A6=2 <= 0.5\nentropy = 0.391\nsamples = 13\nvalue = [1, 12]"] ;
171 -> 201 ;
202 [label="entropy = 0.0\nsamples = 12\nvalue = [0, 12]"] ;
201 -> 202 ;
203 [label="entropy = 0.0\nsamples = 1\nvalue = [1, 0]"] ;
201 -> 203 ;
204 [label="entropy = 0.0\nsamples = 8\nvalue = [0, 8]"] ;
170 -> 204 ;
205 [label="A15=2 <= 0.5\nentropy = 0.811\nsamples = 8\nvalue = [6, 2]"] ;
139 -> 205 ;
206 [label="A8=4.0 <= 0.5\nentropy = 1.0\nsamples = 4\nvalue = [2, 2]"] ;
205 -> 206 ;
207 [label="entropy = 0.0\nsamples = 2\nvalue = [2, 0]"] ;
206 -> 207 ;
208 [label="entropy = 0.0\nsamples = 2\nvalue = [0, 2]"] ;
206 -> 208 ;
209 [label="entropy = 0.0\nsamples = 4\nvalue = [4, 0]"] ;
205 -> 209 ;
210 [label="entropy = 0.0\nsamples = 6\nvalue = [0, 6]"] ;
138 -> 210 ;
211 [label="A13=23.0 <= 0.5\nentropy = 0.592\nsamples = 7\nvalue = [6, 1]"] ;
137 -> 211 ;
212 [label="entropy = 0.0\nsamples = 6\nvalue = [6, 0]"] ;
211 -> 212 ;
213 [label="entropy = 0.0\nsamples = 1\nvalue = [0, 1]"] ;
211 -> 213 ;
214 [label="entropy = 0.0\nsamples = 4\nvalue = [4, 0]"] ;
136 -> 214 ;
215 [label="entropy = 0.0\nsamples = 5\nvalue = [5, 0]"] ;
123 -> 215 ;
216 [label="A18=1.0 <= 0.5\nentropy = 0.772\nsamples = 53\nvalue = [41, 12]"] ;
122 -> 216 ;
217 [label="entropy = 0.0\nsamples = 11\nvalue = [11, 0]"] ;
216 -> 217 ;
218 [label="A13=43.0 <= 0.5\nentropy = 0.863\nsamples = 42\nvalue = [30, 12]"] ;
216 -> 218 ;
219 [label="A13=60.0 <= 0.5\nentropy = 0.811\nsamples = 40\nvalue = [30, 10]"] ;
218 -> 219 ;
220 [label="A13=33.0 <= 0.5\nentropy = 0.742\nsamples = 38\nvalue = [30, 8]"] ;
219 -> 220 ;
221 [label="A7=3 <= 0.5\nentropy = 0.65\nsamples = 36\nvalue = [30, 6]"] ;
220 -> 221 ;
222 [label="A5=691.0 <= 0.5\nentropy = 0.402\nsamples = 25\nvalue = [23, 2]"] ;
221 -> 222 ;
223 [label="A5=9629.0 <= 0.5\nentropy = 0.25\nsamples = 24\nvalue = [23, 1]"] ;
222 -> 223 ;
224 [label="entropy = 0.0\nsamples = 23\nvalue = [23, 0]"] ;
223 -> 224 ;
225 [label="entropy = 0.0\nsamples = 1\nvalue = [0, 1]"] ;
223 -> 225 ;
226 [label="entropy = 0.0\nsamples = 1\nvalue = [0, 1]"] ;
222 -> 226 ;
227 [label="A12=2 <= 0.5\nentropy = 0.946\nsamples = 11\nvalue = [7, 4]"] ;
221 -> 227 ;
228 [label="A17=2 <= 0.5\nentropy = 0.722\nsamples = 5\nvalue = [1, 4]"] ;
227 -> 228 ;
229 [label="entropy = 0.0\nsamples = 4\nvalue = [0, 4]"] ;
228 -> 229 ;
230 [label="entropy = 0.0\nsamples = 1\nvalue = [1, 0]"] ;
228 -> 230 ;
231 [label="entropy = 0.0\nsamples = 6\nvalue = [6, 0]"] ;
227 -> 231 ;
232 [label="entropy = 0.0\nsamples = 2\nvalue = [0, 2]"] ;
220 -> 232 ;
233 [label="entropy = 0.0\nsamples = 2\nvalue = [0, 2]"] ;
219 -> 233 ;
234 [label="entropy = 0.0\nsamples = 2\nvalue = [0, 2]"] ;
218 -> 234 ;
235 [label="A17=2 <= 0.5\nentropy = 0.979\nsamples = 106\nvalue = [44, 62]"] ;
1 -> 235 ;
236 [label="A8=2.0 <= 0.5\nentropy = 0.994\nsamples = 97\nvalue = [44, 53]"] ;
235 -> 236 ;
237 [label="A7=1 <= 0.5\nentropy = 0.961\nsamples = 78\nvalue = [30, 48]"] ;
236 -> 237 ;
238 [label="A2=24.0 <= 0.5\nentropy = 0.908\nsamples = 68\nvalue = [22, 46]"] ;
237 -> 238 ;
239 [label="A3=4 <= 0.5\nentropy = 0.811\nsamples = 52\nvalue = [13, 39]"] ;
238 -> 239 ;
240 [label="A6=5 <= 0.5\nentropy = 0.659\nsamples = 41\nvalue = [7, 34]"] ;
239 -> 240 ;
241 [label="A13=30.0 <= 0.5\nentropy = 0.513\nsamples = 35\nvalue = [4, 31]"] ;
240 -> 241 ;
242 [label="A5=7476.0 <= 0.5\nentropy = 0.337\nsamples = 32\nvalue = [2, 30]"] ;
241 -> 242 ;
243 [label="A5=1940.0 <= 0.5\nentropy = 0.206\nsamples = 31\nvalue = [1, 30]"] ;
242 -> 243 ;
244 [label="entropy = 0.0\nsamples = 30\nvalue = [0, 30]"] ;
243 -> 244 ;
245 [label="entropy = 0.0\nsamples = 1\nvalue = [1, 0]"] ;
243 -> 245 ;
246 [label="entropy = 0.0\nsamples = 1\nvalue = [1, 0]"] ;
242 -> 246 ;
247 [label="A16=1.0 <= 0.5\nentropy = 0.918\nsamples = 3\nvalue = [2, 1]"] ;
241 -> 247 ;
248 [label="entropy = 0.0\nsamples = 1\nvalue = [0, 1]"] ;
247 -> 248 ;
249 [label="entropy = 0.0\nsamples = 2\nvalue = [2, 0]"] ;
247 -> 249 ;
250 [label="A1=2 <= 0.5\nentropy = 1.0\nsamples = 6\nvalue = [3, 3]"] ;
240 -> 250 ;
251 [label="entropy = 0.0\nsamples = 2\nvalue = [0, 2]"] ;
250 -> 251 ;
252 [label="A8=1.0 <= 0.5\nentropy = 0.811\nsamples = 4\nvalue = [3, 1]"] ;
250 -> 252 ;
253 [label="entropy = 0.0\nsamples = 3\nvalue = [3, 0]"] ;
252 -> 253 ;
254 [label="entropy = 0.0\nsamples = 1\nvalue = [0, 1]"] ;
252 -> 254 ;
255 [label="A7=3 <= 0.5\nentropy = 0.994\nsamples = 11\nvalue = [6, 5]"] ;
239 -> 255 ;
256 [label="A5=1136.0 <= 0.5\nentropy = 0.811\nsamples = 8\nvalue = [6, 2]"] ;
255 -> 256 ;
257 [label="A13=46.0 <= 0.5\nentropy = 0.592\nsamples = 7\nvalue = [6, 1]"] ;
256 -> 257 ;
258 [label="entropy = 0.0\nsamples = 6\nvalue = [6, 0]"] ;
257 -> 258 ;
259 [label="entropy = 0.0\nsamples = 1\nvalue = [0, 1]"] ;
257 -> 259 ;
260 [label="entropy = 0.0\nsamples = 1\nvalue = [0, 1]"] ;
256 -> 260 ;
261 [label="entropy = 0.0\nsamples = 3\nvalue = [0, 3]"] ;
255 -> 261 ;
262 [label="A4=0 <= 0.5\nentropy = 0.989\nsamples = 16\nvalue = [9, 7]"] ;
238 -> 262 ;
263 [label="A6=5 <= 0.5\nentropy = 0.89\nsamples = 13\nvalue = [9, 4]"] ;
262 -> 263 ;
264 [label="A3=2 <= 0.5\nentropy = 0.991\nsamples = 9\nvalue = [5, 4]"] ;
263 -> 264 ;
265 [label="entropy = 0.0\nsamples = 3\nvalue = [0, 3]"] ;
264 -> 265 ;
266 [label="A5=12579.0 <= 0.5\nentropy = 0.65\nsamples = 6\nvalue = [5, 1]"] ;
264 -> 266 ;
267 [label="entropy = 0.0\nsamples = 5\nvalue = [5, 0]"] ;
266 -> 267 ;
268 [label="entropy = 0.0\nsamples = 1\nvalue = [0, 1]"] ;
266 -> 268 ;
269 [label="entropy = 0.0\nsamples = 4\nvalue = [4, 0]"] ;
263 -> 269 ;
270 [label="entropy = 0.0\nsamples = 3\nvalue = [0, 3]"] ;
262 -> 270 ;
271 [label="A9=3 <= 0.5\nentropy = 0.722\nsamples = 10\nvalue = [8, 2]"] ;
237 -> 271 ;
272 [label="A2=18.0 <= 0.5\nentropy = 1.0\nsamples = 4\nvalue = [2, 2]"] ;
271 -> 272 ;
273 [label="A3=2 <= 0.5\nentropy = 0.918\nsamples = 3\nvalue = [2, 1]"] ;
272 -> 273 ;
274 [label="entropy = 0.0\nsamples = 1\nvalue = [0, 1]"] ;
273 -> 274 ;
275 [label="entropy = 0.0\nsamples = 2\nvalue = [2, 0]"] ;
273 -> 275 ;
276 [label="entropy = 0.0\nsamples = 1\nvalue = [0, 1]"] ;
272 -> 276 ;
277 [label="entropy = 0.0\nsamples = 6\nvalue = [6, 0]"] ;
271 -> 277 ;
278 [label="A2=9.0 <= 0.5\nentropy = 0.831\nsamples = 19\nvalue = [14, 5]"] ;
236 -> 278 ;
279 [label="A4=5 <= 0.5\nentropy = 0.672\nsamples = 17\nvalue = [14, 3]"] ;
278 -> 279 ;
280 [label="A5=8318.0 <= 0.5\nentropy = 0.544\nsamples = 16\nvalue = [14, 2]"] ;
279 -> 280 ;
281 [label="A5=6468.0 <= 0.5\nentropy = 0.353\nsamples = 15\nvalue = [14, 1]"] ;
280 -> 281 ;
282 [label="entropy = 0.0\nsamples = 14\nvalue = [14, 0]"] ;
281 -> 282 ;
283 [label="entropy = 0.0\nsamples = 1\nvalue = [0, 1]"] ;
281 -> 283 ;
284 [label="entropy = 0.0\nsamples = 1\nvalue = [0, 1]"] ;
280 -> 284 ;
285 [label="entropy = 0.0\nsamples = 1\nvalue = [0, 1]"] ;
279 -> 285 ;
286 [label="entropy = 0.0\nsamples = 2\nvalue = [0, 2]"] ;
278 -> 286 ;
287 [label="entropy = 0.0\nsamples = 9\nvalue = [0, 9]"] ;
235 -> 287 ;
288 [label="A14=3 <= 0.5\nentropy = 0.52\nsamples = 394\nvalue = [348, 46]"] ;
0 -> 288 [labeldistance=2.5, labelangle=-45, headlabel="False"] ;
289 [label="A2=15.0 <= 0.5\nentropy = 0.877\nsamples = 64\nvalue = [45, 19]"] ;
288 -> 289 ;
290 [label="A13=33.0 <= 0.5\nentropy = 0.924\nsamples = 56\nvalue = [37, 19]"] ;
289 -> 290 ;
291 [label="A4=3 <= 0.5\nentropy = 0.899\nsamples = 54\nvalue = [37, 17]"] ;
290 -> 291 ;
292 [label="A2=6.0 <= 0.5\nentropy = 0.965\nsamples = 41\nvalue = [25, 16]"] ;
291 -> 292 ;
293 [label="A4=0 <= 0.5\nentropy = 0.982\nsamples = 38\nvalue = [22, 16]"] ;
292 -> 293 ;
294 [label="A13=41.0 <= 0.5\nentropy = 0.918\nsamples = 30\nvalue = [20, 10]"] ;
293 -> 294 ;
295 [label="A7=5 <= 0.5\nentropy = 0.863\nsamples = 28\nvalue = [20, 8]"] ;
294 -> 295 ;
296 [label="A7=4 <= 0.5\nentropy = 0.946\nsamples = 22\nvalue = [14, 8]"] ;
295 -> 296 ;
297 [label="A8=2.0 <= 0.5\nentropy = 0.998\nsamples = 17\nvalue = [9, 8]"] ;
296 -> 297 ;
298 [label="A8=4.0 <= 0.5\nentropy = 0.89\nsamples = 13\nvalue = [9, 4]"] ;
297 -> 298 ;
299 [label="entropy = 0.0\nsamples = 5\nvalue = [5, 0]"] ;
298 -> 299 ;
300 [label="A4=2 <= 0.5\nentropy = 1.0\nsamples = 8\nvalue = [4, 4]"] ;
298 -> 300 ;
301 [label="A5=6314.0 <= 0.5\nentropy = 0.722\nsamples = 5\nvalue = [1, 4]"] ;
300 -> 301 ;
302 [label="entropy = 0.0\nsamples = 4\nvalue = [0, 4]"] ;
301 -> 302 ;
303 [label="entropy = 0.0\nsamples = 1\nvalue = [1, 0]"] ;
301 -> 303 ;
304 [label="entropy = 0.0\nsamples = 3\nvalue = [3, 0]"] ;
300 -> 304 ;
305 [label="entropy = 0.0\nsamples = 4\nvalue = [0, 4]"] ;
297 -> 305 ;
306 [label="entropy = 0.0\nsamples = 5\nvalue = [5, 0]"] ;
296 -> 306 ;
307 [label="entropy = 0.0\nsamples = 6\nvalue = [6, 0]"] ;
295 -> 307 ;
308 [label="entropy = 0.0\nsamples = 2\nvalue = [0, 2]"] ;
294 -> 308 ;
309 [label="A16=2.0 <= 0.5\nentropy = 0.811\nsamples = 8\nvalue = [2, 6]"] ;
293 -> 309 ;
310 [label="A17=4 <= 0.5\nentropy = 0.918\nsamples = 3\nvalue = [2, 1]"] ;
309 -> 310 ;
311 [label="entropy = 0.0\nsamples = 1\nvalue = [0, 1]"] ;
310 -> 311 ;
312 [label="entropy = 0.0\nsamples = 2\nvalue = [2, 0]"] ;
310 -> 312 ;
313 [label="entropy = 0.0\nsamples = 5\nvalue = [0, 5]"] ;
309 -> 313 ;
314 [label="entropy = 0.0\nsamples = 3\nvalue = [3, 0]"] ;
292 -> 314 ;
315 [label="A5=2397.0 <= 0.5\nentropy = 0.391\nsamples = 13\nvalue = [12, 1]"] ;
291 -> 315 ;
316 [label="entropy = 0.0\nsamples = 12\nvalue = [12, 0]"] ;
315 -> 316 ;
317 [label="entropy = 0.0\nsamples = 1\nvalue = [0, 1]"] ;
315 -> 317 ;
318 [label="entropy = 0.0\nsamples = 2\nvalue = [0, 2]"] ;
290 -> 318 ;
319 [label="entropy = 0.0\nsamples = 8\nvalue = [8, 0]"] ;
289 -> 319 ;
320 [label="A3=4 <= 0.5\nentropy = 0.409\nsamples = 330\nvalue = [303, 27]"] ;
288 -> 320 ;
321 [label="A13=22.0 <= 0.5\nentropy = 0.536\nsamples = 196\nvalue = [172, 24]"] ;
320 -> 321 ;
322 [label="A16=1.0 <= 0.5\nentropy = 0.498\nsamples = 192\nvalue = [171, 21]"] ;
321 -> 322 ;
323 [label="A7=4 <= 0.5\nentropy = 0.811\nsamples = 44\nvalue = [33, 11]"] ;
322 -> 323 ;
324 [label="A15=1 <= 0.5\nentropy = 0.908\nsamples = 34\nvalue = [23, 11]"] ;
323 -> 324 ;
325 [label="A17=4 <= 0.5\nentropy = 0.824\nsamples = 31\nvalue = [23, 8]"] ;
324 -> 325 ;
326 [label="A11=2.0 <= 0.5\nentropy = 0.677\nsamples = 28\nvalue = [23, 5]"] ;
325 -> 326 ;
327 [label="A11=1.0 <= 0.5\nentropy = 0.94\nsamples = 14\nvalue = [9, 5]"] ;
326 -> 327 ;
328 [label="A7=5 <= 0.5\nentropy = 0.811\nsamples = 12\nvalue = [9, 3]"] ;
327 -> 328 ;
329 [label="entropy = 0.0\nsamples = 5\nvalue = [5, 0]"] ;
328 -> 329 ;
330 [label="A19=1 <= 0.5\nentropy = 0.985\nsamples = 7\nvalue = [4, 3]"] ;
328 -> 330 ;
331 [label="entropy = 0.0\nsamples = 3\nvalue = [3, 0]"] ;
330 -> 331 ;
332 [label="A12=2 <= 0.5\nentropy = 0.811\nsamples = 4\nvalue = [1, 3]"] ;
330 -> 332 ;
333 [label="entropy = 0.0\nsamples = 3\nvalue = [0, 3]"] ;
332 -> 333 ;
334 [label="entropy = 0.0\nsamples = 1\nvalue = [1, 0]"] ;
332 -> 334 ;
335 [label="entropy = 0.0\nsamples = 2\nvalue = [0, 2]"] ;
327 -> 335 ;
336 [label="entropy = 0.0\nsamples = 14\nvalue = [14, 0]"] ;
326 -> 336 ;
337 [label="entropy = 0.0\nsamples = 3\nvalue = [0, 3]"] ;
325 -> 337 ;
338 [label="entropy = 0.0\nsamples = 3\nvalue = [0, 3]"] ;
324 -> 338 ;
339 [label="entropy = 0.0\nsamples = 10\nvalue = [10, 0]"] ;
323 -> 339 ;
340 [label="A4=3 <= 0.5\nentropy = 0.357\nsamples = 148\nvalue = [138, 10]"] ;
322 -> 340 ;
341 [label="A4=1 <= 0.5\nentropy = 0.466\nsamples = 101\nvalue = [91, 10]"] ;
340 -> 341 ;
342 [label="A7=5 <= 0.5\nentropy = 0.562\nsamples = 76\nvalue = [66, 10]"] ;
341 -> 342 ;
343 [label="A7=4 <= 0.5\nentropy = 0.65\nsamples = 60\nvalue = [50, 10]"] ;
342 -> 343 ;
344 [label="A12=1 <= 0.5\nentropy = 0.73\nsamples = 49\nvalue = [39, 10]"] ;
343 -> 344 ;
345 [label="A12=4 <= 0.5\nentropy = 0.89\nsamples = 26\nvalue = [18, 8]"] ;
344 -> 345 ;
346 [label="A8=4.0 <= 0.5\nentropy = 0.982\nsamples = 19\nvalue = [11, 8]"] ;
345 -> 346 ;
347 [label="A5=4623.0 <= 0.5\nentropy = 0.811\nsamples = 12\nvalue = [9, 3]"] ;
346 -> 347 ;
348 [label="A5=1386.0 <= 0.5\nentropy = 0.684\nsamples = 11\nvalue = [9, 2]"] ;
347 -> 348 ;
349 [label="A5=4611.0 <= 0.5\nentropy = 0.469\nsamples = 10\nvalue = [9, 1]"] ;
348 -> 349 ;
350 [label="entropy = 0.0\nsamples = 9\nvalue = [9, 0]"] ;
349 -> 350 ;
351 [label="entropy = 0.0\nsamples = 1\nvalue = [0, 1]"] ;
349 -> 351 ;
352 [label="entropy = 0.0\nsamples = 1\nvalue = [0, 1]"] ;
348 -> 352 ;
353 [label="entropy = 0.0\nsamples = 1\nvalue = [0, 1]"] ;
347 -> 353 ;
354 [label="A6=5 <= 0.5\nentropy = 0.863\nsamples = 7\nvalue = [2, 5]"] ;
346 -> 354 ;
355 [label="entropy = 0.0\nsamples = 4\nvalue = [0, 4]"] ;
354 -> 355 ;
356 [label="A17=2 <= 0.5\nentropy = 0.918\nsamples = 3\nvalue = [2, 1]"] ;
354 -> 356 ;
357 [label="entropy = 0.0\nsamples = 2\nvalue = [2, 0]"] ;
356 -> 357 ;
358 [label="entropy = 0.0\nsamples = 1\nvalue = [0, 1]"] ;
356 -> 358 ;
359 [label="entropy = 0.0\nsamples = 7\nvalue = [7, 0]"] ;
345 -> 359 ;
360 [label="A13=21.0 <= 0.5\nentropy = 0.426\nsamples = 23\nvalue = [21, 2]"] ;
344 -> 360 ;
361 [label="A5=1943.0 <= 0.5\nentropy = 0.267\nsamples = 22\nvalue = [21, 1]"] ;
360 -> 361 ;
362 [label="entropy = 0.0\nsamples = 21\nvalue = [21, 0]"] ;
361 -> 362 ;
363 [label="entropy = 0.0\nsamples = 1\nvalue = [0, 1]"] ;
361 -> 363 ;
364 [label="entropy = 0.0\nsamples = 1\nvalue = [0, 1]"] ;
360 -> 364 ;
365 [label="entropy = 0.0\nsamples = 11\nvalue = [11, 0]"] ;
343 -> 365 ;
366 [label="entropy = 0.0\nsamples = 16\nvalue = [16, 0]"] ;
342 -> 366 ;
367 [label="entropy = 0.0\nsamples = 25\nvalue = [25, 0]"] ;
341 -> 367 ;
368 [label="entropy = 0.0\nsamples = 47\nvalue = [47, 0]"] ;
340 -> 368 ;
369 [label="A12=2 <= 0.5\nentropy = 0.811\nsamples = 4\nvalue = [1, 3]"] ;
321 -> 369 ;
370 [label="entropy = 0.0\nsamples = 3\nvalue = [0, 3]"] ;
369 -> 370 ;
371 [label="entropy = 0.0\nsamples = 1\nvalue = [1, 0]"] ;
369 -> 371 ;
372 [label="A13=30.0 <= 0.5\nentropy = 0.155\nsamples = 134\nvalue = [131, 3]"] ;
320 -> 372 ;
373 [label="A5=7127.0 <= 0.5\nentropy = 0.066\nsamples = 127\nvalue = [126, 1]"] ;
372 -> 373 ;
374 [label="entropy = 0.0\nsamples = 126\nvalue = [126, 0]"] ;
373 -> 374 ;
375 [label="entropy = 0.0\nsamples = 1\nvalue = [0, 1]"] ;
373 -> 375 ;
376 [label="A6=1 <= 0.5\nentropy = 0.863\nsamples = 7\nvalue = [5, 2]"] ;
372 -> 376 ;
377 [label="A4=1 <= 0.5\nentropy = 0.918\nsamples = 3\nvalue = [1, 2]"] ;
376 -> 377 ;
378 [label="entropy = 0.0\nsamples = 2\nvalue = [0, 2]"] ;
377 -> 378 ;
379 [label="entropy = 0.0\nsamples = 1\nvalue = [1, 0]"] ;
377 -> 379 ;
380 [label="entropy = 0.0\nsamples = 4\nvalue = [4, 0]"] ;
376 -> 380 ;
}