digraph Tree {
node [shape=box] ;
0 [label="A1=4 <= 0.5\nentropy = 0.881\nsamples = 1000\nvalue = [700, 300]"] ;
1 [label="A12=4 <= 0.5\nentropy = 0.981\nsamples = 606\nvalue = [352, 254]"] ;
0 -> 1 [labeldistance=2.5, labelangle=45, headlabel="True"] ;
2 [label="A1=1 <= 0.5\nentropy = 0.961\nsamples = 500\nvalue = [308, 192]"] ;
1 -> 2 ;
3 [label="A13=25.0 <= 0.5\nentropy = 0.903\nsamples = 276\nvalue = [188, 88]"] ;
2 -> 3 ;
4 [label="A6=5 <= 0.5\nentropy = 0.875\nsamples = 258\nvalue = [182, 76]"] ;
3 -> 4 ;
5 [label="A2=48.0 <= 0.5\nentropy = 0.915\nsamples = 218\nvalue = [146, 72]"] ;
4 -> 5 ;
6 [label="A7=4 <= 0.5\nentropy = 0.894\nsamples = 209\nvalue = [144, 65]"] ;
5 -> 6 ;
7 [label="A1=3 <= 0.5\nentropy = 0.929\nsamples = 180\nvalue = [118, 62]"] ;
6 -> 7 ;
8 [label="A12=1 <= 0.5\nentropy = 0.966\nsamples = 138\nvalue = [84, 54]"] ;
7 -> 8 ;
9 [label="A9=2 <= 0.5\nentropy = 0.998\nsamples = 91\nvalue = [48, 43]"] ;
8 -> 9 ;
10 [label="A10=1 <= 0.5\nentropy = 0.967\nsamples = 61\nvalue = [37, 24]"] ;
9 -> 10 ;
11 [label="entropy = 0.0\nsamples = 3\nvalue = [0, 3]"] ;
10 -> 11 ;
12 [label="A4=1 <= 0.5\nentropy = 0.944\nsamples = 58\nvalue = [37, 21]"] ;
10 -> 12 ;
13 [label="A2=36.0 <= 0.5\nentropy = 0.984\nsamples = 47\nvalue = [27, 20]"] ;
12 -> 13 ;
14 [label="A13=61.0 <= 0.5\nentropy = 0.971\nsamples = 45\nvalue = [27, 18]"] ;
13 -> 14 ;
15 [label="A9=1 <= 0.5\nentropy = 0.952\nsamples = 43\nvalue = [27, 16]"] ;
14 -> 15 ;
16 [label="A11=2.0 <= 0.5\nentropy = 0.982\nsamples = 38\nvalue = [22, 16]"] ;
15 -> 16 ;
17 [label="A16=1.0 <= 0.5\nentropy = 0.845\nsamples = 22\nvalue = [16, 6]"] ;
16 -> 17 ;
18 [label="entropy = 0.0\nsamples = 7\nvalue = [7, 0]"] ;
17 -> 18 ;
19 [label="A6=1 <= 0.5\nentropy = 0.971\nsamples = 15\nvalue = [9, 6]"] ;
17 -> 19 ;
20 [label="entropy = 0.0\nsamples = 4\nvalue = [4, 0]"] ;
19 -> 20 ;
21 [label="A14=3 <= 0.5\nentropy = 0.994\nsamples = 11\nvalue = [5, 6]"] ;
19 -> 21 ;
22 [label="entropy = 0.0\nsamples = 3\nvalue = [0, 3]"] ;
21 -> 22 ;
23 [label="A5=1209.0 <= 0.5\nentropy = 0.954\nsamples = 8\nvalue = [5, 3]"] ;
21 -> 23 ;
24 [label="A8=1.0 <= 0.5\nentropy = 0.863\nsamples = 7\nvalue = [5, 2]"] ;
23 -> 24 ;
25 [label="A5=802.0 <= 0.5\nentropy = 0.65\nsamples = 6\nvalue = [5, 1]"] ;
24 -> 25 ;
26 [label="entropy = 0.0\nsamples = 5\nvalue = [5, 0]"] ;
25 -> 26 ;
27 [label="entropy = 0.0\nsamples = 1\nvalue = [0, 1]"] ;
25 -> 27 ;
28 [label="entropy = 0.0\nsamples = 1\nvalue = [0, 1]"] ;
24 -> 28 ;
29 [label="entropy = 0.0\nsamples = 1\nvalue = [0, 1]"] ;
23 -> 29 ;
30 [label="A9=4 <= 0.5\nentropy = 0.954\nsamples = 16\nvalue = [6, 10]"] ;
16 -> 30 ;
31 [label="A2=12.0 <= 0.5\nentropy = 0.994\nsamples = 11\nvalue = [6, 5]"] ;
30 -> 31 ;
32 [label="A2=27.0 <= 0.5\nentropy = 0.918\nsamples = 9\nvalue = [6, 3]"] ;
31 -> 32 ;
33 [label="A2=15.0 <= 0.5\nentropy = 0.592\nsamples = 7\nvalue = [6, 1]"] ;
32 -> 33 ;
34 [label="entropy = 0.0\nsamples = 6\nvalue = [6, 0]"] ;
33 -> 34 ;
35 [label="entropy = 0.0\nsamples = 1\nvalue = [0, 1]"] ;
33 -> 35 ;
36 [label="entropy = 0.0\nsamples = 2\nvalue = [0, 2]"] ;
32 -> 36 ;
37 [label="entropy = 0.0\nsamples = 2\nvalue = [0, 2]"] ;
31 -> 37 ;
38 [label="entropy = 0.0\nsamples = 5\nvalue = [0, 5]"] ;
30 -> 38 ;
39 [label="entropy = 0.0\nsamples = 5\nvalue = [5, 0]"] ;
15 -> 39 ;
40 [label="entropy = 0.0\nsamples = 2\nvalue = [0, 2]"] ;
14 -> 40 ;
41 [label="entropy = 0.0\nsamples = 2\nvalue = [0, 2]"] ;
13 -> 41 ;
42 [label="A13=28.0 <= 0.5\nentropy = 0.439\nsamples = 11\nvalue = [10, 1]"] ;
12 -> 42 ;
43 [label="entropy = 0.0\nsamples = 10\nvalue = [10, 0]"] ;
42 -> 43 ;
44 [label="entropy = 0.0\nsamples = 1\nvalue = [0, 1]"] ;
42 -> 44 ;
45 [label="A6=2 <= 0.5\nentropy = 0.948\nsamples = 30\nvalue = [11, 19]"] ;
9 -> 45 ;
46 [label="A2=9.0 <= 0.5\nentropy = 1.0\nsamples = 22\nvalue = [11, 11]"] ;
45 -> 46 ;
47 [label="A2=24.0 <= 0.5\nentropy = 0.964\nsamples = 18\nvalue = [11, 7]"] ;
46 -> 47 ;
48 [label="A18=1.0 <= 0.5\nentropy = 0.779\nsamples = 13\nvalue = [10, 3]"] ;
47 -> 48 ;
49 [label="A2=27.0 <= 0.5\nentropy = 0.918\nsamples = 3\nvalue = [1, 2]"] ;
48 -> 49 ;
50 [label="entropy = 0.0\nsamples = 2\nvalue = [0, 2]"] ;
49 -> 50 ;
51 [label="entropy = 0.0\nsamples = 1\nvalue = [1, 0]"] ;
49 -> 51 ;
52 [label="A5=3804.0 <= 0.5\nentropy = 0.469\nsamples = 10\nvalue = [9, 1]"] ;
48 -> 52 ;
53 [label="entropy = 0.0\nsamples = 9\nvalue = [9, 0]"] ;
52 -> 53 ;
54 [label="entropy = 0.0\nsamples = 1\nvalue = [0, 1]"] ;
52 -> 54 ;
55 [label="A8=4.0 <= 0.5\nentropy = 0.722\nsamples = 5\nvalue = [1, 4]"] ;
47 -> 55 ;
56 [label="entropy = 0.0\nsamples = 4\nvalue = [0, 4]"] ;
55 -> 56 ;
57 [label="entropy = 0.0\nsamples = 1\nvalue = [1, 0]"] ;
55 -> 57 ;
58 [label="entropy = 0.0\nsamples = 4\nvalue = [0, 4]"] ;
46 -> 58 ;
59 [label="entropy = 0.0\nsamples = 8\nvalue = [0, 8]"] ;
45 -> 59 ;
60 [label="A2=24.0 <= 0.5\nentropy = 0.785\nsamples = 47\nvalue = [36, 11]"] ;
8 -> 60 ;
61 [label="A9=1 <= 0.5\nentropy = 0.684\nsamples = 44\nvalue = [36, 8]"] ;
60 -> 61 ;
62 [label="A5=1534.0 <= 0.5\nentropy = 0.592\nsamples = 42\nvalue = [36, 6]"] ;
61 -> 62 ;
63 [label="A5=1237.0 <= 0.5\nentropy = 0.535\nsamples = 41\nvalue = [36, 5]"] ;
62 -> 63 ;
64 [label="A16=2.0 <= 0.5\nentropy = 0.469\nsamples = 40\nvalue = [36, 4]"] ;
63 -> 64 ;
65 [label="A5=766.0 <= 0.5\nentropy = 0.206\nsamples = 31\nvalue = [30, 1]"] ;
64 -> 65 ;
66 [label="entropy = 0.0\nsamples = 30\nvalue = [30, 0]"] ;
65 -> 66 ;
67 [label="entropy = 0.0\nsamples = 1\nvalue = [0, 1]"] ;
65 -> 67 ;
68 [label="A4=3 <= 0.5\nentropy = 0.918\nsamples = 9\nvalue = [6, 3]"] ;
64 -> 68 ;
69 [label="A2=12.0 <= 0.5\nentropy = 0.811\nsamples = 4\nvalue = [1, 3]"] ;
68 -> 69 ;
70 [label="entropy = 0.0\nsamples = 3\nvalue = [0, 3]"] ;
69 -> 70 ;
71 [label="entropy = 0.0\nsamples = 1\nvalue = [1, 0]"] ;
69 -> 71 ;
72 [label="entropy = 0.0\nsamples = 5\nvalue = [5, 0]"] ;
68 -> 72 ;
73 [label="entropy = 0.0\nsamples = 1\nvalue = [0, 1]"] ;
63 -> 73 ;
74 [label="entropy = 0.0\nsamples = 1\nvalue = [0, 1]"] ;
62 -> 74 ;
75 [label="entropy = 0.0\nsamples = 2\nvalue = [0, 2]"] ;
61 -> 75 ;
76 [label="entropy = 0.0\nsamples = 3\nvalue = [0, 3]"] ;
60 -> 76 ;
77 [label="A13=34.0 <= 0.5\nentropy = 0.702\nsamples = 42\nvalue = [34, 8]"] ;
7 -> 77 ;
78 [label="A8=4.0 <= 0.5\nentropy = 0.61\nsamples = 40\nvalue = [34, 6]"] ;
77 -> 78 ;
79 [label="A5=2319.0 <= 0.5\nentropy = 0.371\nsamples = 28\nvalue = [26, 2]"] ;
78 -> 79 ;
80 [label="A5=745.0 <= 0.5\nentropy = 0.229\nsamples = 27\nvalue = [26, 1]"] ;
79 -> 80 ;
81 [label="entropy = 0.0\nsamples = 26\nvalue = [26, 0]"] ;
80 -> 81 ;
82 [label="entropy = 0.0\nsamples = 1\nvalue = [0, 1]"] ;
80 -> 82 ;
83 [label="entropy = 0.0\nsamples = 1\nvalue = [0, 1]"] ;
79 -> 83 ;
84 [label="A4=9 <= 0.5\nentropy = 0.918\nsamples = 12\nvalue = [8, 4]"] ;
78 -> 84 ;
85 [label="A7=3 <= 0.5\nentropy = 0.722\nsamples = 10\nvalue = [8, 2]"] ;
84 -> 85 ;
86 [label="entropy = 0.0\nsamples = 7\nvalue = [7, 0]"] ;
85 -> 86 ;
87 [label="A13=24.0 <= 0.5\nentropy = 0.918\nsamples = 3\nvalue = [1, 2]"] ;
85 -> 87 ;
88 [label="entropy = 0.0\nsamples = 2\nvalue = [0, 2]"] ;
87 -> 88 ;
89 [label="entropy = 0.0\nsamples = 1\nvalue = [1, 0]"] ;
87 -> 89 ;
90 [label="entropy = 0.0\nsamples = 2\nvalue = [0, 2]"] ;
84 -> 90 ;
91 [label="entropy = 0.0\nsamples = 2\nvalue = [0, 2]"] ;
77 -> 91 ;
92 [label="A2=30.0 <= 0.5\nentropy = 0.48\nsamples = 29\nvalue = [26, 3]"] ;
6 -> 92 ;
93 [label="A13=43.0 <= 0.5\nentropy = 0.371\nsamples = 28\nvalue = [26, 2]"] ;
92 -> 93 ;
94 [label="A16=3.0 <= 0.5\nentropy = 0.229\nsamples = 27\nvalue = [26, 1]"] ;
93 -> 94 ;
95 [label="entropy = 0.0\nsamples = 26\nvalue = [26, 0]"] ;
94 -> 95 ;
96 [label="entropy = 0.0\nsamples = 1\nvalue = [0, 1]"] ;
94 -> 96 ;
97 [label="entropy = 0.0\nsamples = 1\nvalue = [0, 1]"] ;
93 -> 97 ;
98 [label="entropy = 0.0\nsamples = 1\nvalue = [0, 1]"] ;
92 -> 98 ;
99 [label="A13=30.0 <= 0.5\nentropy = 0.764\nsamples = 9\nvalue = [2, 7]"] ;
5 -> 99 ;
100 [label="entropy = 0.0\nsamples = 6\nvalue = [0, 6]"] ;
99 -> 100 ;
101 [label="A4=2 <= 0.5\nentropy = 0.918\nsamples = 3\nvalue = [2, 1]"] ;
99 -> 101 ;
102 [label="entropy = 0.0\nsamples = 2\nvalue = [2, 0]"] ;
101 -> 102 ;
103 [label="entropy = 0.0\nsamples = 1\nvalue = [0, 1]"] ;
101 -> 103 ;
104 [label="A5=14555.0 <= 0.5\nentropy = 0.469\nsamples = 40\nvalue = [36, 4]"] ;
4 -> 104 ;
105 [label="A5=1924.0 <= 0.5\nentropy = 0.391\nsamples = 39\nvalue = [36, 3]"] ;
104 -> 105 ;
106 [label="A5=1042.0 <= 0.5\nentropy = 0.297\nsamples = 38\nvalue = [36, 2]"] ;
105 -> 106 ;
107 [label="A5=1344.0 <= 0.5\nentropy = 0.179\nsamples = 37\nvalue = [36, 1]"] ;
106 -> 107 ;
108 [label="entropy = 0.0\nsamples = 36\nvalue = [36, 0]"] ;
107 -> 108 ;
109 [label="entropy = 0.0\nsamples = 1\nvalue = [0, 1]"] ;
107 -> 109 ;
110 [label="entropy = 0.0\nsamples = 1\nvalue = [0, 1]"] ;
106 -> 110 ;
111 [label="entropy = 0.0\nsamples = 1\nvalue = [0, 1]"] ;
105 -> 111 ;
112 [label="entropy = 0.0\nsamples = 1\nvalue = [0, 1]"] ;
104 -> 112 ;
113 [label="A3=2 <= 0.5\nentropy = 0.918\nsamples = 18\nvalue = [6, 12]"] ;
3 -> 113 ;
114 [label="entropy = 0.0\nsamples = 6\nvalue = [0, 6]"] ;
113 -> 114 ;
115 [label="A2=12.0 <= 0.5\nentropy = 1.0\nsamples = 12\nvalue = [6, 6]"] ;
113 -> 115 ;
116 [label="A7=2 <= 0.5\nentropy = 0.811\nsamples = 8\nvalue = [6, 2]"] ;
115 -> 116 ;
117 [label="entropy = 0.0\nsamples = 5\nvalue = [5, 0]"] ;
116 -> 117 ;
118 [label="A6=3 <= 0.5\nentropy = 0.918\nsamples = 3\nvalue = [1, 2]"] ;
116 -> 118 ;
119 [label="entropy = 0.0\nsamples = 2\nvalue = [0, 2]"] ;
118 -> 119 ;
120 [label="entropy = 0.0\nsamples = 1\nvalue = [1, 0]"] ;
118 -> 120 ;
121 [label="entropy = 0.0\nsamples = 4\nvalue = [0, 4]"] ;
115 -> 121 ;
122 [label="A3=4 <= 0.5\nentropy = 0.996\nsamples = 224\nvalue = [120, 104]"] ;
2 -> 122 ;
123 [label="A6=3 <= 0.5\nentropy = 0.996\nsamples = 171\nvalue = [79, 92]"] ;
122 -> 123 ;
124 [label="A10=1 <= 0.5\nentropy = 0.992\nsamples = 166\nvalue = [74, 92]"] ;
123 -> 124 ;
125 [label="A2=48.0 <= 0.5\nentropy = 0.845\nsamples = 22\nvalue = [16, 6]"] ;
124 -> 125 ;
126 [label="A9=3 <= 0.5\nentropy = 0.722\nsamples = 20\nvalue = [16, 4]"] ;
125 -> 126 ;
127 [label="entropy = 0.0\nsamples = 8\nvalue = [8, 0]"] ;
126 -> 127 ;
128 [label="A18=2.0 <= 0.5\nentropy = 0.918\nsamples = 12\nvalue = [8, 4]"] ;
126 -> 128 ;
129 [label="A17=3 <= 0.5\nentropy = 0.985\nsamples = 7\nvalue = [3, 4]"] ;
128 -> 129 ;
130 [label="A4=3 <= 0.5\nentropy = 0.811\nsamples = 4\nvalue = [3, 1]"] ;
129 -> 130 ;
131 [label="entropy = 0.0\nsamples = 3\nvalue = [3, 0]"] ;
130 -> 131 ;
132 [label="entropy = 0.0\nsamples = 1\nvalue = [0, 1]"] ;
130 -> 132 ;
133 [label="entropy = 0.0\nsamples = 3\nvalue = [0, 3]"] ;
129 -> 133 ;
134 [label="entropy = 0.0\nsamples = 5\nvalue = [5, 0]"] ;
128 -> 134 ;
135 [label="entropy = 0.0\nsamples = 2\nvalue = [0, 2]"] ;
125 -> 135 ;
136 [label="A6=4 <= 0.5\nentropy = 0.973\nsamples = 144\nvalue = [58, 86]"] ;
124 -> 136 ;
137 [label="A2=6.0 <= 0.5\nentropy = 0.962\nsamples = 140\nvalue = [54, 86]"] ;
136 -> 137 ;
138 [label="A13=29.0 <= 0.5\nentropy = 0.943\nsamples = 133\nvalue = [48, 85]"] ;
137 -> 138 ;
139 [label="A2=15.0 <= 0.5\nentropy = 0.957\nsamples = 127\nvalue = [48, 79]"] ;
138 -> 139 ;
140 [label="A17=3 <= 0.5\nentropy = 0.937\nsamples = 119\nvalue = [42, 77]"] ;
139 -> 140 ;
141 [label="A9=4 <= 0.5\nentropy = 0.998\nsamples = 42\nvalue = [20, 22]"] ;
140 -> 141 ;
142 [label="A13=35.0 <= 0.5\nentropy = 0.98\nsamples = 36\nvalue = [15, 21]"] ;
141 -> 142 ;
143 [label="A11=1.0 <= 0.5\nentropy = 0.96\nsamples = 34\nvalue = [13, 21]"] ;
142 -> 143 ;
144 [label="A14=2 <= 0.5\nentropy = 0.987\nsamples = 30\nvalue = [13, 17]"] ;
143 -> 144 ;
145 [label="A13=23.0 <= 0.5\nentropy = 0.999\nsamples = 27\nvalue = [13, 14]"] ;
144 -> 145 ;
146 [label="A3=1 <= 0.5\nentropy = 0.999\nsamples = 25\nvalue = [13, 12]"] ;
145 -> 146 ;
147 [label="A13=45.0 <= 0.5\nentropy = 0.988\nsamples = 23\nvalue = [13, 10]"] ;
146 -> 147 ;
148 [label="A2=21.0 <= 0.5\nentropy = 0.959\nsamples = 21\nvalue = [13, 8]"] ;
147 -> 148 ;
149 [label="A9=2 <= 0.5\nentropy = 0.982\nsamples = 19\nvalue = [11, 8]"] ;
148 -> 149 ;
150 [label="A7=2 <= 0.5\nentropy = 0.896\nsamples = 16\nvalue = [11, 5]"] ;
149 -> 150 ;
151 [label="A5=1987.0 <= 0.5\nentropy = 0.837\nsamples = 15\nvalue = [11, 4]"] ;
150 -> 151 ;
152 [label="A13=39.0 <= 0.5\nentropy = 0.75\nsamples = 14\nvalue = [11, 3]"] ;
151 -> 152 ;
153 [label="A12=3 <= 0.5\nentropy = 0.619\nsamples = 13\nvalue = [11, 2]"] ;
152 -> 153 ;
154 [label="entropy = 0.0\nsamples = 9\nvalue = [9, 0]"] ;
153 -> 154 ;
155 [label="A17=4 <= 0.5\nentropy = 1.0\nsamples = 4\nvalue = [2, 2]"] ;
153 -> 155 ;
156 [label="entropy = 0.0\nsamples = 2\nvalue = [0, 2]"] ;
155 -> 156 ;
157 [label="entropy = 0.0\nsamples = 2\nvalue = [2, 0]"] ;
155 -> 157 ;
158 [label="entropy = 0.0\nsamples = 1\nvalue = [0, 1]"] ;
152 -> 158 ;
159 [label="entropy = 0.0\nsamples = 1\nvalue = [0, 1]"] ;
151 -> 159 ;
160 [label="entropy = 0.0\nsamples = 1\nvalue = [0, 1]"] ;
150 -> 160 ;
161 [label="entropy = 0.0\nsamples = 3\nvalue = [0, 3]"] ;
149 -> 161 ;
162 [label="entropy = 0.0\nsamples = 2\nvalue = [2, 0]"] ;
148 -> 162 ;
163 [label="entropy = 0.0\nsamples = 2\nvalue = [0, 2]"] ;
147 -> 163 ;
164 [label="entropy = 0.0\nsamples = 2\nvalue = [0, 2]"] ;
146 -> 164 ;
165 [label="entropy = 0.0\nsamples = 2\nvalue = [0, 2]"] ;
145 -> 165 ;
166 [label="entropy = 0.0\nsamples = 3\nvalue = [0, 3]"] ;
144 -> 166 ;
167 [label="entropy = 0.0\nsamples = 4\nvalue = [0, 4]"] ;
143 -> 167 ;
168 [label="entropy = 0.0\nsamples = 2\nvalue = [2, 0]"] ;
142 -> 168 ;
169 [label="A13=47.0 <= 0.5\nentropy = 0.65\nsamples = 6\nvalue = [5, 1]"] ;
141 -> 169 ;
170 [label="entropy = 0.0\nsamples = 5\nvalue = [5, 0]"] ;
169 -> 170 ;
171 [label="entropy = 0.0\nsamples = 1\nvalue = [0, 1]"] ;
169 -> 171 ;
172 [label="A2=36.0 <= 0.5\nentropy = 0.863\nsamples = 77\nvalue = [22, 55]"] ;
140 -> 172 ;
173 [label="A4=0 <= 0.5\nentropy = 0.903\nsamples = 69\nvalue = [22, 47]"] ;
172 -> 173 ;
174 [label="A9=4 <= 0.5\nentropy = 0.954\nsamples = 56\nvalue = [21, 35]"] ;
173 -> 174 ;
175 [label="A6=5 <= 0.5\nentropy = 0.977\nsamples = 51\nvalue = [21, 30]"] ;
174 -> 175 ;
176 [label="A16=2.0 <= 0.5\nentropy = 0.933\nsamples = 43\nvalue = [15, 28]"] ;
175 -> 176 ;
177 [label="A3=1 <= 0.5\nentropy = 0.98\nsamples = 36\nvalue = [15, 21]"] ;
176 -> 177 ;
178 [label="A13=27.0 <= 0.5\nentropy = 0.997\nsamples = 32\nvalue = [15, 17]"] ;
177 -> 178 ;
179 [label="A11=1.0 <= 0.5\nentropy = 0.978\nsamples = 29\nvalue = [12, 17]"] ;
178 -> 179 ;
180 [label="A7=5 <= 0.5\nentropy = 0.918\nsamples = 24\nvalue = [8, 16]"] ;
179 -> 180 ;
181 [label="A13=28.0 <= 0.5\nentropy = 0.845\nsamples = 22\nvalue = [6, 16]"] ;
180 -> 181 ;
182 [label="A9=3 <= 0.5\nentropy = 0.722\nsamples = 20\nvalue = [4, 16]"] ;
181 -> 182 ;
183 [label="A5=3650.0 <= 0.5\nentropy = 0.371\nsamples = 14\nvalue = [1, 13]"] ;
182 -> 183 ;
184 [label="entropy = 0.0\nsamples = 13\nvalue = [0, 13]"] ;
183 -> 184 ;
185 [label="entropy = 0.0\nsamples = 1\nvalue = [1, 0]"] ;
183 -> 185 ;
186 [label="A12=3 <= 0.5\nentropy = 1.0\nsamples = 6\nvalue = [3, 3]"] ;
182 -> 186 ;
187 [label="entropy = 0.0\nsamples = 3\nvalue = [3, 0]"] ;
186 -> 187 ;
188 [label="entropy = 0.0\nsamples = 3\nvalue = [0, 3]"] ;
186 -> 188 ;
189 [label="entropy = 0.0\nsamples = 2\nvalue = [2, 0]"] ;
181 -> 189 ;
190 [label="entropy = 0.0\nsamples = 2\nvalue = [2, 0]"] ;
180 -> 190 ;
191 [label="A8=1.0 <= 0.5\nentropy = 0.722\nsamples = 5\nvalue = [4, 1]"] ;
179 -> 191 ;
192 [label="entropy = 0.0\nsamples = 4\nvalue = [4, 0]"] ;
191 -> 192 ;
193 [label="entropy = 0.0\nsamples = 1\nvalue = [0, 1]"] ;
191 -> 193 ;
194 [label="entropy = 0.0\nsamples = 3\nvalue = [3, 0]"] ;
178 -> 194 ;
195 [label="entropy = 0.0\nsamples = 4\nvalue = [0, 4]"] ;
177 -> 195 ;
196 [label="entropy = 0.0\nsamples = 7\nvalue = [0, 7]"] ;
176 -> 196 ;
197 [label="A7=5 <= 0.5\nentropy = 0.811\nsamples = 8\nvalue = [6, 2]"] ;
175 -> 197 ;
198 [label="entropy = 0.0\nsamples = 5\nvalue = [5, 0]"] ;
197 -> 198 ;
199 [label="A8=2.0 <= 0.5\nentropy = 0.918\nsamples = 3\nvalue = [1, 2]"] ;
197 -> 199 ;
200 [label="entropy = 0.0\nsamples = 2\nvalue = [0, 2]"] ;
199 -> 200 ;
201 [label="entropy = 0.0\nsamples = 1\nvalue = [1, 0]"] ;
199 -> 201 ;
202 [label="entropy = 0.0\nsamples = 5\nvalue = [0, 5]"] ;
174 -> 202 ;
203 [label="A6=2 <= 0.5\nentropy = 0.391\nsamples = 13\nvalue = [1, 12]"] ;
173 -> 203 ;
204 [label="entropy = 0.0\nsamples = 12\nvalue = [0, 12]"] ;
203 -> 204 ;
205 [label="entropy = 0.0\nsamples = 1\nvalue = [1, 0]"] ;
203 -> 205 ;
206 [label="entropy = 0.0\nsamples = 8\nvalue = [0, 8]"] ;
172 -> 206 ;
207 [label="A12=3 <= 0.5\nentropy = 0.811\nsamples = 8\nvalue = [6, 2]"] ;
139 -> 207 ;
208 [label="entropy = 0.0\nsamples = 4\nvalue = [4, 0]"] ;
207 -> 208 ;
209 [label="A8=4.0 <= 0.5\nentropy = 1.0\nsamples = 4\nvalue = [2, 2]"] ;
207 -> 209 ;
210 [label="entropy = 0.0\nsamples = 2\nvalue = [2, 0]"] ;
209 -> 210 ;
211 [label="entropy = 0.0\nsamples = 2\nvalue = [0, 2]"] ;
209 -> 211 ;
212 [label="entropy = 0.0\nsamples = 6\nvalue = [0, 6]"] ;
138 -> 212 ;
213 [label="A13=23.0 <= 0.5\nentropy = 0.592\nsamples = 7\nvalue = [6, 1]"] ;
137 -> 213 ;
214 [label="entropy = 0.0\nsamples = 6\nvalue = [6, 0]"] ;
213 -> 214 ;
215 [label="entropy = 0.0\nsamples = 1\nvalue = [0, 1]"] ;
213 -> 215 ;
216 [label="entropy = 0.0\nsamples = 4\nvalue = [4, 0]"] ;
136 -> 216 ;
217 [label="entropy = 0.0\nsamples = 5\nvalue = [5, 0]"] ;
123 -> 217 ;
218 [label="A18=2.0 <= 0.5\nentropy = 0.772\nsamples = 53\nvalue = [41, 12]"] ;
122 -> 218 ;
219 [label="A13=33.0 <= 0.5\nentropy = 0.863\nsamples = 42\nvalue = [30, 12]"] ;
218 -> 219 ;
220 [label="A13=43.0 <= 0.5\nentropy = 0.811\nsamples = 40\nvalue = [30, 10]"] ;
219 -> 220 ;
221 [label="A13=60.0 <= 0.5\nentropy = 0.742\nsamples = 38\nvalue = [30, 8]"] ;
220 -> 221 ;
222 [label="A7=3 <= 0.5\nentropy = 0.65\nsamples = 36\nvalue = [30, 6]"] ;
221 -> 222 ;
223 [label="A13=35.0 <= 0.5\nentropy = 0.402\nsamples = 25\nvalue = [23, 2]"] ;
222 -> 223 ;
224 [label="A5=9629.0 <= 0.5\nentropy = 0.25\nsamples = 24\nvalue = [23, 1]"] ;
223 -> 224 ;
225 [label="entropy = 0.0\nsamples = 23\nvalue = [23, 0]"] ;
224 -> 225 ;
226 [label="entropy = 0.0\nsamples = 1\nvalue = [0, 1]"] ;
224 -> 226 ;
227 [label="entropy = 0.0\nsamples = 1\nvalue = [0, 1]"] ;
223 -> 227 ;
228 [label="A12=2 <= 0.5\nentropy = 0.946\nsamples = 11\nvalue = [7, 4]"] ;
222 -> 228 ;
229 [label="A9=3 <= 0.5\nentropy = 0.722\nsamples = 5\nvalue = [1, 4]"] ;
228 -> 229 ;
230 [label="entropy = 0.0\nsamples = 4\nvalue = [0, 4]"] ;
229 -> 230 ;
231 [label="entropy = 0.0\nsamples = 1\nvalue = [1, 0]"] ;
229 -> 231 ;
232 [label="entropy = 0.0\nsamples = 6\nvalue = [6, 0]"] ;
228 -> 232 ;
233 [label="entropy = 0.0\nsamples = 2\nvalue = [0, 2]"] ;
221 -> 233 ;
234 [label="entropy = 0.0\nsamples = 2\nvalue = [0, 2]"] ;
220 -> 234 ;
235 [label="entropy = 0.0\nsamples = 2\nvalue = [0, 2]"] ;
219 -> 235 ;
236 [label="entropy = 0.0\nsamples = 11\nvalue = [11, 0]"] ;
218 -> 236 ;
237 [label="A17=2 <= 0.5\nentropy = 0.979\nsamples = 106\nvalue = [44, 62]"] ;
1 -> 237 ;
238 [label="A8=2.0 <= 0.5\nentropy = 0.994\nsamples = 97\nvalue = [44, 53]"] ;
237 -> 238 ;
239 [label="A7=1 <= 0.5\nentropy = 0.961\nsamples = 78\nvalue = [30, 48]"] ;
238 -> 239 ;
240 [label="A2=24.0 <= 0.5\nentropy = 0.908\nsamples = 68\nvalue = [22, 46]"] ;
239 -> 240 ;
241 [label="A3=4 <= 0.5\nentropy = 0.811\nsamples = 52\nvalue = [13, 39]"] ;
240 -> 241 ;
242 [label="A6=5 <= 0.5\nentropy = 0.659\nsamples = 41\nvalue = [7, 34]"] ;
241 -> 242 ;
243 [label="A13=30.0 <= 0.5\nentropy = 0.513\nsamples = 35\nvalue = [4, 31]"] ;
242 -> 243 ;
244 [label="A5=1940.0 <= 0.5\nentropy = 0.337\nsamples = 32\nvalue = [2, 30]"] ;
243 -> 244 ;
245 [label="A5=7476.0 <= 0.5\nentropy = 0.206\nsamples = 31\nvalue = [1, 30]"] ;
244 -> 245 ;
246 [label="entropy = 0.0\nsamples = 30\nvalue = [0, 30]"] ;
245 -> 246 ;
247 [label="entropy = 0.0\nsamples = 1\nvalue = [1, 0]"] ;
245 -> 247 ;
248 [label="entropy = 0.0\nsamples = 1\nvalue = [1, 0]"] ;
244 -> 248 ;
249 [label="A14=2 <= 0.5\nentropy = 0.918\nsamples = 3\nvalue = [2, 1]"] ;
243 -> 249 ;
250 [label="entropy = 0.0\nsamples = 2\nvalue = [2, 0]"] ;
249 -> 250 ;
251 [label="entropy = 0.0\nsamples = 1\nvalue = [0, 1]"] ;
249 -> 251 ;
252 [label="A3=2 <= 0.5\nentropy = 1.0\nsamples = 6\nvalue = [3, 3]"] ;
242 -> 252 ;
253 [label="entropy = 0.0\nsamples = 2\nvalue = [2, 0]"] ;
252 -> 253 ;
254 [label="A13=61.0 <= 0.5\nentropy = 0.811\nsamples = 4\nvalue = [1, 3]"] ;
252 -> 254 ;
255 [label="entropy = 0.0\nsamples = 3\nvalue = [0, 3]"] ;
254 -> 255 ;
256 [label="entropy = 0.0\nsamples = 1\nvalue = [1, 0]"] ;
254 -> 256 ;
257 [label="A7=5 <= 0.5\nentropy = 0.994\nsamples = 11\nvalue = [6, 5]"] ;
241 -> 257 ;
258 [label="entropy = 0.0\nsamples = 3\nvalue = [0, 3]"] ;
257 -> 258 ;
259 [label="A13=46.0 <= 0.5\nentropy = 0.811\nsamples = 8\nvalue = [6, 2]"] ;
257 -> 259 ;
260 [label="A5=1136.0 <= 0.5\nentropy = 0.592\nsamples = 7\nvalue = [6, 1]"] ;
259 -> 260 ;
261 [label="entropy = 0.0\nsamples = 6\nvalue = [6, 0]"] ;
260 -> 261 ;
262 [label="entropy = 0.0\nsamples = 1\nvalue = [0, 1]"] ;
260 -> 262 ;
263 [label="entropy = 0.0\nsamples = 1\nvalue = [0, 1]"] ;
259 -> 263 ;
264 [label="A4=0 <= 0.5\nentropy = 0.989\nsamples = 16\nvalue = [9, 7]"] ;
240 -> 264 ;
265 [label="A6=5 <= 0.5\nentropy = 0.89\nsamples = 13\nvalue = [9, 4]"] ;
264 -> 265 ;
266 [label="A3=2 <= 0.5\nentropy = 0.991\nsamples = 9\nvalue = [5, 4]"] ;
265 -> 266 ;
267 [label="entropy = 0.0\nsamples = 3\nvalue = [0, 3]"] ;
266 -> 267 ;
268 [label="A13=44.0 <= 0.5\nentropy = 0.65\nsamples = 6\nvalue = [5, 1]"] ;
266 -> 268 ;
269 [label="entropy = 0.0\nsamples = 5\nvalue = [5, 0]"] ;
268 -> 269 ;
270 [label="entropy = 0.0\nsamples = 1\nvalue = [0, 1]"] ;
268 -> 270 ;
271 [label="entropy = 0.0\nsamples = 4\nvalue = [4, 0]"] ;
265 -> 271 ;
272 [label="entropy = 0.0\nsamples = 3\nvalue = [0, 3]"] ;
264 -> 272 ;
273 [label="A9=2 <= 0.5\nentropy = 0.722\nsamples = 10\nvalue = [8, 2]"] ;
239 -> 273 ;
274 [label="entropy = 0.0\nsamples = 6\nvalue = [6, 0]"] ;
273 -> 274 ;
275 [label="A6=3 <= 0.5\nentropy = 1.0\nsamples = 4\nvalue = [2, 2]"] ;
273 -> 275 ;
276 [label="A4=2 <= 0.5\nentropy = 0.918\nsamples = 3\nvalue = [1, 2]"] ;
275 -> 276 ;
277 [label="entropy = 0.0\nsamples = 2\nvalue = [0, 2]"] ;
276 -> 277 ;
278 [label="entropy = 0.0\nsamples = 1\nvalue = [1, 0]"] ;
276 -> 278 ;
279 [label="entropy = 0.0\nsamples = 1\nvalue = [1, 0]"] ;
275 -> 279 ;
280 [label="A2=9.0 <= 0.5\nentropy = 0.831\nsamples = 19\nvalue = [14, 5]"] ;
238 -> 280 ;
281 [label="A5=1190.0 <= 0.5\nentropy = 0.672\nsamples = 17\nvalue = [14, 3]"] ;
280 -> 281 ;
282 [label="A13=52.0 <= 0.5\nentropy = 0.544\nsamples = 16\nvalue = [14, 2]"] ;
281 -> 282 ;
283 [label="A5=8318.0 <= 0.5\nentropy = 0.353\nsamples = 15\nvalue = [14, 1]"] ;
282 -> 283 ;
284 [label="entropy = 0.0\nsamples = 14\nvalue = [14, 0]"] ;
283 -> 284 ;
285 [label="entropy = 0.0\nsamples = 1\nvalue = [0, 1]"] ;
283 -> 285 ;
286 [label="entropy = 0.0\nsamples = 1\nvalue = [0, 1]"] ;
282 -> 286 ;
287 [label="entropy = 0.0\nsamples = 1\nvalue = [0, 1]"] ;
281 -> 287 ;
288 [label="entropy = 0.0\nsamples = 2\nvalue = [0, 2]"] ;
280 -> 288 ;
289 [label="entropy = 0.0\nsamples = 9\nvalue = [0, 9]"] ;
237 -> 289 ;
290 [label="A14=3 <= 0.5\nentropy = 0.52\nsamples = 394\nvalue = [348, 46]"] ;
0 -> 290 [labeldistance=2.5, labelangle=-45, headlabel="False"] ;
291 [label="A2=15.0 <= 0.5\nentropy = 0.877\nsamples = 64\nvalue = [45, 19]"] ;
290 -> 291 ;
292 [label="A13=33.0 <= 0.5\nentropy = 0.924\nsamples = 56\nvalue = [37, 19]"] ;
291 -> 292 ;
293 [label="A4=3 <= 0.5\nentropy = 0.899\nsamples = 54\nvalue = [37, 17]"] ;
292 -> 293 ;
294 [label="A10=1 <= 0.5\nentropy = 0.965\nsamples = 41\nvalue = [25, 16]"] ;
293 -> 294 ;
295 [label="entropy = 0.0\nsamples = 3\nvalue = [3, 0]"] ;
294 -> 295 ;
296 [label="A7=1 <= 0.5\nentropy = 0.982\nsamples = 38\nvalue = [22, 16]"] ;
294 -> 296 ;
297 [label="A11=1.0 <= 0.5\nentropy = 0.964\nsamples = 36\nvalue = [22, 14]"] ;
296 -> 297 ;
298 [label="A7=3 <= 0.5\nentropy = 0.989\nsamples = 32\nvalue = [18, 14]"] ;
297 -> 298 ;
299 [label="A13=41.0 <= 0.5\nentropy = 0.852\nsamples = 18\nvalue = [13, 5]"] ;
298 -> 299 ;
300 [label="A16=2.0 <= 0.5\nentropy = 0.696\nsamples = 16\nvalue = [13, 3]"] ;
299 -> 300 ;
301 [label="entropy = 0.0\nsamples = 11\nvalue = [11, 0]"] ;
300 -> 301 ;
302 [label="A8=2.0 <= 0.5\nentropy = 0.971\nsamples = 5\nvalue = [2, 3]"] ;
300 -> 302 ;
303 [label="entropy = 0.0\nsamples = 2\nvalue = [2, 0]"] ;
302 -> 303 ;
304 [label="entropy = 0.0\nsamples = 3\nvalue = [0, 3]"] ;
302 -> 304 ;
305 [label="entropy = 0.0\nsamples = 2\nvalue = [0, 2]"] ;
299 -> 305 ;
306 [label="A2=6.0 <= 0.5\nentropy = 0.94\nsamples = 14\nvalue = [5, 9]"] ;
298 -> 306 ;
307 [label="A4=0 <= 0.5\nentropy = 0.89\nsamples = 13\nvalue = [4, 9]"] ;
306 -> 307 ;
308 [label="A8=2.0 <= 0.5\nentropy = 0.991\nsamples = 9\nvalue = [4, 5]"] ;
307 -> 308 ;
309 [label="A8=4.0 <= 0.5\nentropy = 0.918\nsamples = 6\nvalue = [4, 2]"] ;
308 -> 309 ;
310 [label="entropy = 0.0\nsamples = 3\nvalue = [3, 0]"] ;
309 -> 310 ;
311 [label="A4=2 <= 0.5\nentropy = 0.918\nsamples = 3\nvalue = [1, 2]"] ;
309 -> 311 ;
312 [label="entropy = 0.0\nsamples = 2\nvalue = [0, 2]"] ;
311 -> 312 ;
313 [label="entropy = 0.0\nsamples = 1\nvalue = [1, 0]"] ;
311 -> 313 ;
314 [label="entropy = 0.0\nsamples = 3\nvalue = [0, 3]"] ;
308 -> 314 ;
315 [label="entropy = 0.0\nsamples = 4\nvalue = [0, 4]"] ;
307 -> 315 ;
316 [label="entropy = 0.0\nsamples = 1\nvalue = [1, 0]"] ;
306 -> 316 ;
317 [label="entropy = 0.0\nsamples = 4\nvalue = [4, 0]"] ;
297 -> 317 ;
318 [label="entropy = 0.0\nsamples = 2\nvalue = [0, 2]"] ;
296 -> 318 ;
319 [label="A5=2397.0 <= 0.5\nentropy = 0.391\nsamples = 13\nvalue = [12, 1]"] ;
293 -> 319 ;
320 [label="entropy = 0.0\nsamples = 12\nvalue = [12, 0]"] ;
319 -> 320 ;
321 [label="entropy = 0.0\nsamples = 1\nvalue = [0, 1]"] ;
319 -> 321 ;
322 [label="entropy = 0.0\nsamples = 2\nvalue = [0, 2]"] ;
292 -> 322 ;
323 [label="entropy = 0.0\nsamples = 8\nvalue = [8, 0]"] ;
291 -> 323 ;
324 [label="A3=4 <= 0.5\nentropy = 0.409\nsamples = 330\nvalue = [303, 27]"] ;
290 -> 324 ;
325 [label="A13=22.0 <= 0.5\nentropy = 0.536\nsamples = 196\nvalue = [172, 24]"] ;
324 -> 325 ;
326 [label="A16=1.0 <= 0.5\nentropy = 0.498\nsamples = 192\nvalue = [171, 21]"] ;
325 -> 326 ;
327 [label="A7=4 <= 0.5\nentropy = 0.811\nsamples = 44\nvalue = [33, 11]"] ;
326 -> 327 ;
328 [label="A15=1 <= 0.5\nentropy = 0.908\nsamples = 34\nvalue = [23, 11]"] ;
327 -> 328 ;
329 [label="A17=4 <= 0.5\nentropy = 0.824\nsamples = 31\nvalue = [23, 8]"] ;
328 -> 329 ;
330 [label="A11=2.0 <= 0.5\nentropy = 0.677\nsamples = 28\nvalue = [23, 5]"] ;
329 -> 330 ;
331 [label="A8=1.0 <= 0.5\nentropy = 0.94\nsamples = 14\nvalue = [9, 5]"] ;
330 -> 331 ;
332 [label="A7=5 <= 0.5\nentropy = 0.811\nsamples = 12\nvalue = [9, 3]"] ;
331 -> 332 ;
333 [label="entropy = 0.0\nsamples = 5\nvalue = [5, 0]"] ;
332 -> 333 ;
334 [label="A19=1 <= 0.5\nentropy = 0.985\nsamples = 7\nvalue = [4, 3]"] ;
332 -> 334 ;
335 [label="entropy = 0.0\nsamples = 3\nvalue = [3, 0]"] ;
334 -> 335 ;
336 [label="A13=34.0 <= 0.5\nentropy = 0.811\nsamples = 4\nvalue = [1, 3]"] ;
334 -> 336 ;
337 [label="entropy = 0.0\nsamples = 3\nvalue = [0, 3]"] ;
336 -> 337 ;
338 [label="entropy = 0.0\nsamples = 1\nvalue = [1, 0]"] ;
336 -> 338 ;
339 [label="entropy = 0.0\nsamples = 2\nvalue = [0, 2]"] ;
331 -> 339 ;
340 [label="entropy = 0.0\nsamples = 14\nvalue = [14, 0]"] ;
330 -> 340 ;
341 [label="entropy = 0.0\nsamples = 3\nvalue = [0, 3]"] ;
329 -> 341 ;
342 [label="entropy = 0.0\nsamples = 3\nvalue = [0, 3]"] ;
328 -> 342 ;
343 [label="entropy = 0.0\nsamples = 10\nvalue = [10, 0]"] ;
327 -> 343 ;
344 [label="A4=3 <= 0.5\nentropy = 0.357\nsamples = 148\nvalue = [138, 10]"] ;
326 -> 344 ;
345 [label="A4=1 <= 0.5\nentropy = 0.466\nsamples = 101\nvalue = [91, 10]"] ;
344 -> 345 ;
346 [label="A7=5 <= 0.5\nentropy = 0.562\nsamples = 76\nvalue = [66, 10]"] ;
345 -> 346 ;
347 [label="A7=4 <= 0.5\nentropy = 0.65\nsamples = 60\nvalue = [50, 10]"] ;
346 -> 347 ;
348 [label="A12=1 <= 0.5\nentropy = 0.73\nsamples = 49\nvalue = [39, 10]"] ;
347 -> 348 ;
349 [label="A12=4 <= 0.5\nentropy = 0.89\nsamples = 26\nvalue = [18, 8]"] ;
348 -> 349 ;
350 [label="A8=4.0 <= 0.5\nentropy = 0.982\nsamples = 19\nvalue = [11, 8]"] ;
349 -> 350 ;
351 [label="A5=1386.0 <= 0.5\nentropy = 0.811\nsamples = 12\nvalue = [9, 3]"] ;
350 -> 351 ;
352 [label="A4=6 <= 0.5\nentropy = 0.684\nsamples = 11\nvalue = [9, 2]"] ;
351 -> 352 ;
353 [label="A5=4611.0 <= 0.5\nentropy = 0.469\nsamples = 10\nvalue = [9, 1]"] ;
352 -> 353 ;
354 [label="entropy = 0.0\nsamples = 9\nvalue = [9, 0]"] ;
353 -> 354 ;
355 [label="entropy = 0.0\nsamples = 1\nvalue = [0, 1]"] ;
353 -> 355 ;
356 [label="entropy = 0.0\nsamples = 1\nvalue = [0, 1]"] ;
352 -> 356 ;
357 [label="entropy = 0.0\nsamples = 1\nvalue = [0, 1]"] ;
351 -> 357 ;
358 [label="A7=3 <= 0.5\nentropy = 0.863\nsamples = 7\nvalue = [2, 5]"] ;
350 -> 358 ;
359 [label="A17=2 <= 0.5\nentropy = 0.918\nsamples = 3\nvalue = [2, 1]"] ;
358 -> 359 ;
360 [label="entropy = 0.0\nsamples = 2\nvalue = [2, 0]"] ;
359 -> 360 ;
361 [label="entropy = 0.0\nsamples = 1\nvalue = [0, 1]"] ;
359 -> 361 ;
362 [label="entropy = 0.0\nsamples = 4\nvalue = [0, 4]"] ;
358 -> 362 ;
363 [label="entropy = 0.0\nsamples = 7\nvalue = [7, 0]"] ;
349 -> 363 ;
364 [label="A5=1943.0 <= 0.5\nentropy = 0.426\nsamples = 23\nvalue = [21, 2]"] ;
348 -> 364 ;
365 [label="A2=27.0 <= 0.5\nentropy = 0.267\nsamples = 22\nvalue = [21, 1]"] ;
364 -> 365 ;
366 [label="entropy = 0.0\nsamples = 21\nvalue = [21, 0]"] ;
365 -> 366 ;
367 [label="entropy = 0.0\nsamples = 1\nvalue = [0, 1]"] ;
365 -> 367 ;
368 [label="entropy = 0.0\nsamples = 1\nvalue = [0, 1]"] ;
364 -> 368 ;
369 [label="entropy = 0.0\nsamples = 11\nvalue = [11, 0]"] ;
347 -> 369 ;
370 [label="entropy = 0.0\nsamples = 16\nvalue = [16, 0]"] ;
346 -> 370 ;
371 [label="entropy = 0.0\nsamples = 25\nvalue = [25, 0]"] ;
345 -> 371 ;
372 [label="entropy = 0.0\nsamples = 47\nvalue = [47, 0]"] ;
344 -> 372 ;
373 [label="A6=1 <= 0.5\nentropy = 0.811\nsamples = 4\nvalue = [1, 3]"] ;
325 -> 373 ;
374 [label="entropy = 0.0\nsamples = 1\nvalue = [1, 0]"] ;
373 -> 374 ;
375 [label="entropy = 0.0\nsamples = 3\nvalue = [0, 3]"] ;
373 -> 375 ;
376 [label="A13=30.0 <= 0.5\nentropy = 0.155\nsamples = 134\nvalue = [131, 3]"] ;
324 -> 376 ;
377 [label="A5=7127.0 <= 0.5\nentropy = 0.066\nsamples = 127\nvalue = [126, 1]"] ;
376 -> 377 ;
378 [label="entropy = 0.0\nsamples = 126\nvalue = [126, 0]"] ;
377 -> 378 ;
379 [label="entropy = 0.0\nsamples = 1\nvalue = [0, 1]"] ;
377 -> 379 ;
380 [label="A6=1 <= 0.5\nentropy = 0.863\nsamples = 7\nvalue = [5, 2]"] ;
376 -> 380 ;
381 [label="A4=1 <= 0.5\nentropy = 0.918\nsamples = 3\nvalue = [1, 2]"] ;
380 -> 381 ;
382 [label="entropy = 0.0\nsamples = 2\nvalue = [0, 2]"] ;
381 -> 382 ;
383 [label="entropy = 0.0\nsamples = 1\nvalue = [1, 0]"] ;
381 -> 383 ;
384 [label="entropy = 0.0\nsamples = 4\nvalue = [4, 0]"] ;
380 -> 384 ;
}